svm_type c_svc
kernel_type rbf
gamma 0.0002
nr_class 8
total_sv 410
rho 0.715474 0.174321 0.349538 -0.131034 -0.0542065 0.433317 -0.019732 -0.301119 -0.0137149 -0.537639 -0.4214 0.0159861 -0.629814 0.313306 -0.196145 -0.243412 0.220214 -0.243573 -0.412483 -0.432868 -0.0489733 -0.333703 -0.0309117 0.443533 0.0769108 0.404885 -0.00286715 -0.341052
label 0 2 4 3 1 6 7 5
nr_sv 40 73 68 84 46 17 62 20
SV
1 0 0 0 0 0 0 0:102.529 1:48.3665 2:118.301 3:39.0939 4:100.67 5:41.9563 6:0.510038 7:177.754 8:37.9906 9:48.3997 10:34.6449 11:94.1849 12:34.6449 13:94.1849 14:37.7391 15:92.415 16:65.4184 17:91.2189 18:31.2476 19:45.6666 20:106.196 21:18.3394 22:106.196 23:18.3394 24:39.6221 25:44.3338 26:30.5102 27:25.56 28:49.815 29:42.2191 30:51.2101 31:55.0851 32:65.6836 33:37.8685 34:60.1541 35:12.5454 36:117.929 37:26.1568 38:148.964 39:14.1207 40:13.3612 41:24.2209 42:9.81479 43:145.204 44:21.6148 45:149.036 46:128.157 47:34.992 48:5.90614 49:4.10184 
1 0.06545568216225314 0.1714082782557217 0.5597673480546589 0.1207537173213684 0.6454897333470021 0.3300292995691584 0:112.286 1:42.7454 2:110.225 3:44.087 4:105.018 5:37.5167 6:0 7:180 8:32.4712 9:49.3987 10:37.7468 11:100.62 12:37.7468 13:100.62 14:42.6302 15:93.3726 16:64.4902 17:91.6188 18:29.3914 19:43.9424 20:107.864 21:18.7641 22:107.864 23:18.7641 24:40.3645 25:41.8202 26:30.8768 27:21.9385 28:52.2348 29:40.3372 30:53.5795 31:50.9315 32:66.7505 33:39.3187 34:74.9951 35:14.4143 36:119.466 37:28.4774 38:146.497 39:15.6591 40:9.11136 41:19.6284 42:6.44542 43:156.125 44:28.2863 45:134.66 46:129.888 47:31.3368 48:15.3833 49:9.13635 
1 0 0 0 0 0 0 0:106.835 1:47.0363 2:114.583 3:42.5797 4:107.283 5:37.7706 6:2.07333 7:168.435 8:29.2261 9:53.1175 10:35.7274 11:88.6028 12:35.7274 13:88.6028 14:45.2478 15:90.5714 16:58.6724 17:96.3947 18:31.7446 19:44.8572 20:109.028 21:17.8046 22:109.028 23:17.8046 24:36.6434 25:46.5587 26:29.5388 27:28.355 28:51.6128 29:46.1144 30:51.5317 31:54.8141 32:65.8391 33:37.5885 34:66.1613 35:14.3568 36:108.605 37:32.7537 38:136.904 39:22.1345 40:9.67132 41:41.9335 42:6.76617 43:140.763 44:34.8245 45:126.376 46:120.813 47:40.8335 48:16.2552 49:11.4259 
1 0.1970672857114273 0.1926917205304585 0.08653800120719832 0.1359242763099549 0.2927354829946156 0.2885071384091733 0:107.159 1:48.1938 2:119.047 3:39.5215 4:100.342 5:40.2735 6:4.23843 7:157.834 8:37.6905 9:51.2773 10:24.2059 11:125.538 12:24.2059 13:125.538 14:38.2614 15:92.0588 16:68.6409 17:88.855 18:27.6238 19:49.5474 20:121.176 21:15.2329 22:121.176 23:15.2329 24:35.1959 25:54.0193 26:23.4986 27:19.6538 28:48.8141 29:38.6598 30:57.2595 31:53.8549 32:66.2541 33:44.684 34:60.3699 35:10.749 36:135 37:26.5651 38:140.906 39:18.1694 40:12.8043 41:38.5359 42:10.2019 43:134.1 44:23.0176 45:149.871 46:128.1 47:38.6598 48:2.83666 49:3.50353 
1 0 0 0 0 0.3286856325021816 0 0:106.123 1:44.9708 2:114.923 3:40.8074 4:107.72 5:38.5513 6:4.47359 7:149.247 8:26.7603 9:56.4033 10:32.4712 11:77.9052 12:32.4712 13:77.9052 14:45.7529 15:90.4054 16:57.2099 17:98.8132 18:30.9518 19:42.8874 20:104.176 21:18.8824 22:104.176 23:18.8824 24:36.9571 25:47.2605 26:24.3411 27:23.8387 28:51.0767 29:44.3743 30:56.2276 31:53.1056 32:65.2592 33:38.3818 34:79.7488 35:15.1157 36:89.5659 37:31.9688 38:134.15 39:22.1861 40:13.2723 41:39.2176 42:8.97899 43:138.838 44:27.2324 45:132.825 46:131.277 47:30.7377 48:22.1935 49:12.6785 
1 0.09604981752524355 0.1052050218106906 0 0.07508484001943301 0 0.5365235194793265 0:87.5998 1:57.2301 2:128.174 3:33.0067 4:115.062 5:36.624 6:2.68196 7:169.237 8:31.8463 9:41.5664 10:35.1342 11:110.225 12:35.1342 13:110.225 14:44.808 15:87.7512 16:62.6478 17:92.9373 18:30.2145 19:41.5591 20:105.67 21:18.0459 22:105.67 23:18.0459 24:55.4478 25:36.9524 26:35.6764 27:20.1639 28:49.6701 29:46.7683 30:52.1753 31:59.25 32:64.9058 33:37.4092 34:62.9691 35:3.83227 36:139.713 37:11.8131 38:142.125 39:16.0736 40:15.0685 41:22.8065 42:7.42877 43:155.621 44:0.113009 45:179.817 46:153.522 47:15.9951 48:1.21888 49:0.643746 
1 0 0 0.2084394487329761 0 0 1 0:92.3318 1:52.3058 2:121.268 3:35.8164 4:111.97 5:36.4716 6:1.38369 7:175.21 8:33.0463 9:41.6155 10:46.0809 11:92.1211 12:46.0809 13:92.1211 14:42.443 15:89.9769 16:61.5612 17:94.1849 18:30.6373 19:46.5337 20:106.117 21:15.6422 22:106.117 23:15.6422 24:31.0652 25:51.3402 26:29.7449 27:33.6901 28:48.4399 29:43.9215 30:50.7928 31:59.4321 32:60.6465 33:35.7624 34:52.7205 35:10.9859 36:130.05 37:29.2914 38:138.18 39:19.2996 40:19.0256 41:35.9824 42:12.6723 43:137.521 44:24.5625 45:137.668 46:121.146 47:35.7274 48:17.5201 49:12.1584 
1 0.042952804689142 0.1137706064497286 0 0.0796737494868614 0 0.3383358626171757 0:91.9709 1:52.4679 2:127.634 3:32.2527 4:112.725 5:36.767 6:4.73182 7:159.941 8:32.4018 9:46.9831 10:37.0565 11:114.034 12:37.0565 13:114.034 14:42.4317 15:94.1081 16:62.9367 17:93.7476 18:30.0418 19:44.5423 20:109.767 21:16.9113 22:109.767 23:16.9113 24:51.8428 25:46.2873 26:33.6901 27:18.4349 28:50.352 29:42.1746 30:53.6249 31:54.3343 32:64.8431 33:36.4111 34:53.6525 35:6.02385 36:142.651 37:19.2593 38:120.363 39:27.3108 40:28.2698 41:41.8118 42:16.0908 43:133.279 44:9.62816 45:161.375 46:137.261 47:23.4861 48:19.3008 49:8.86752 
1 0.4290532975796715 0.7955657453624193 0.3851286120594451 0.5582950809320726 0.8316122706586753 0.3576912158092268 0:108.708 1:45.6541 2:112.404 3:43.1524 4:102.243 5:39.8792 6:0.481466 7:177.397 8:36.163 9:51.2345 10:29.7449 11:97.125 12:29.7449 13:97.125 14:38.7014 15:94.0324 16:69.7632 17:87.2055 18:29.3959 19:50.1548 20:128.387 21:12.5878 22:128.387 23:12.5878 24:32.4712 25:49.3987 26:26.9522 27:29.3578 28:53.1814 29:37.4588 30:52.49 31:48.2758 32:74.9816 33:44.3097 34:101.567 35:13.434 36:129.605 37:30.7217 38:146.765 39:16.5476 40:14.325 41:63.6102 42:13.6055 43:107.227 44:29.9696 45:124.846 46:112.714 47:43.4869 48:11.3099 49:7.85331 
1 0.8854490676729087 0.6661119319458997 1 0.3026714170936782 1 0 0:120.783 1:30.7853 2:105.625 3:41.2465 4:98.2922 5:43.7045 6:12.8865 7:130.791 8:22.4138 9:47.1488 10:62.9814 11:58.6472 12:62.9814 13:58.6472 14:48.9685 15:94.711 16:52.275 17:101.725 18:33.9691 19:40.0762 20:88.3743 21:22.7422 22:88.3743 23:22.7422 24:29.4936 25:48.3468 26:28.2863 27:33.8994 28:61.0826 29:45.8877 30:54.1845 31:41.9463 32:69.57 33:33.6522 34:75.1946 35:24.1259 36:79.7169 37:53.6283 38:107.567 39:34.0397 40:42.6109 41:52.5975 42:28.8545 43:107.449 44:28.9804 45:92.3625 46:110.927 47:30.7896 48:70.6541 49:24.4418 
0 1 0 1 0 0 0 0:110.735 1:40.0925 2:114.011 3:39.3196 4:101.928 5:41.2103 6:8.5087 7:147.653 8:24.8176 9:42.8127 10:55.204 11:73.9264 12:55.204 13:73.9264 14:54.4623 15:76.6075 16:64.8168 17:88.3182 18:34.9393 19:51.6942 20:108.488 21:19.8708 22:108.488 23:19.8708 24:37.1847 25:46.3322 26:31.3287 27:27.4076 28:47.2605 29:49.6987 30:48.5323 31:50.0636 32:70.949 33:34.5326 34:75.5297 35:18.6216 36:107.292 37:38.5546 38:113.154 39:33.5208 40:34.6551 41:66.8686 42:29.5158 43:95.8696 44:42.5198 45:92.3672 46:97.0908 47:45.4196 48:33.4056 49:26.9773 
1 0 0 0 0 0 0 0:110.376 1:40.2571 2:111.718 3:41.7948 4:107.805 5:39.3641 6:4.34702 7:158.334 8:25.7536 9:48.9207 10:44.6903 11:80.1342 12:44.6903 13:80.1342 14:51.5865 15:84.4506 16:58.9519 17:94.7874 18:33.593 19:45.9105 20:105.472 21:18.3614 22:105.472 23:18.3614 24:38.3887 25:43.9708 26:34.6409 27:29.1975 28:46.0397 29:46.359 30:52.28 31:53.0876 32:64.4457 33:37.0691 34:77.6278 35:14.2198 36:92.9737 37:31.2284 38:127.108 39:26.8163 40:23.649 41:62.0831 42:17.8389 43:109.581 44:36.076 45:109.44 46:111.092 47:41.5434 48:32.8837 49:19.9052 
1 0 0 0.57036152516172 0 0.7892876449354338 0.02976052719796478 0:99.4017 1:46.0264 2:119.327 3:36.999 4:109.709 5:39.9175 6:1.94149 7:171.539 8:29.6203 9:43.4198 10:39.4725 11:93.4064 12:39.4725 13:93.4064 14:40.4415 15:92.3878 16:61.5258 17:93.5562 18:30.2396 19:43.4466 20:106.181 21:17.0458 22:106.181 23:17.0458 24:49.5739 25:43.9584 26:30.8199 27:22.223 28:49.1347 29:42.2446 30:52.1753 31:59.25 32:63.0121 33:36.9656 34:62.5256 35:7.67556 36:124.799 37:19.2722 38:149.25 39:12.6739 40:13.431 41:20.6299 42:6.64198 43:157.993 44:9.17103 45:165.862 46:147.611 47:20.9558 48:6.91123 49:4.39871 
1 0.1732926198035406 0.3903919607225257 0.2220301817620364 0.2734253866917949 1 0.04196772297327375 0:108.18 1:42.2929 2:114.315 3:41.3893 4:103.598 5:42.9214 6:6.76923 7:142.907 8:27.1378 9:51.4793 10:41.1121 11:69.444 12:41.1121 13:69.444 14:40.6159 15:95.8841 16:57.75 17:99.4623 18:32.0574 19:45.4658 20:111.448 21:17.1027 22:111.448 23:17.1027 24:34.4673 25:57.3005 26:22.531 27:26.3258 28:53.0034 29:43.7261 30:55.0565 31:53.9189 32:63.6443 33:42.7829 34:79.4858 35:10.1968 36:99.1 37:26.7649 38:131.594 39:21.5815 40:22.3022 41:38.5302 42:12.7746 43:139.497 44:15.1994 45:149.319 46:126.803 47:29.3652 48:23.0122 49:11.9212 
0.5468329598612847 0.2574216147383335 0 1 0 0 0 0:121.855 1:34.3872 2:109.53 3:44.7846 4:95.9061 5:46.0051 6:5.34328 7:153.568 8:27.365 9:52.218 10:45 11:71.5651 12:45 13:71.5651 14:46.9903 15:88.1975 16:60.4013 17:92.6736 18:36.1741 19:44.7765 20:106.993 21:18.3772 22:106.993 23:18.3772 24:33.8827 25:45.9496 26:32.4712 27:34.3302 28:53.7804 29:49.1911 30:44.6917 31:49.1988 32:73.2384 33:33.8345 34:78.7215 35:17.1346 36:109.577 37:40.5627 38:137.045 39:23.1986 40:20.8867 41:78.3778 42:19.274 43:97.7836 44:40.3226 45:98.4475 46:99.4008 47:49.4926 48:25.3263 49:19.2933 
1 0 0 0 0 0.1760583698517584 0 0:107.713 1:41.0607 2:113.313 3:40.211 4:104.845 5:41.1432 6:5.50074 7:153.343 8:28.6275 9:50.0283 10:43.7811 11:69.7174 12:43.7811 13:69.7174 14:40.5596 15:92.4621 16:58.3805 17:96.4387 18:33.5722 19:45.5494 20:115.75 21:15.6732 22:115.75 23:15.6732 24:46.5398 25:42.5603 26:35.2724 27:27.3777 28:51.3727 29:44.2542 30:49.5823 31:55.5599 32:74.4759 33:40.8018 34:99.1839 35:12.9715 36:103.658 37:29.6901 38:134.913 39:22.0319 40:20.1196 41:51.9112 42:14.7436 43:120.964 44:23.1314 45:139.214 46:130.272 47:32.504 48:19.8599 49:11.7112 
1 1 0.2051213016592581 1 0.1545555303593172 0.3628350054115244 1 0:119.847 1:35.3285 2:109.163 3:42.7185 4:99.722 5:41.9673 6:2.5952 7:170.727 8:28.6731 9:40.9504 10:47.4896 11:94.7636 12:47.4896 13:94.7636 14:46.5899 15:88.3062 16:62.2278 17:92.6229 18:33.377 19:51.7418 20:109.182 21:20.5414 22:109.182 23:20.5414 24:34.296 25:48.42 26:30.6997 27:27.0246 28:50.5993 29:43.9949 30:60.1729 31:47.8025 32:68.4824 33:41.5996 34:69.0071 35:22.3251 36:112.273 37:41.1011 38:108.306 39:33.4923 40:35.8648 41:60.626 42:27.0679 43:102.904 44:42.0735 45:88.3758 46:101.768 47:38.621 48:40.5474 49:26.6161 
1 0.0901038501538976 0.2689723526908416 0 0.1594182427030427 1 0.1926661747180212 0:100.331 1:45.3251 2:118.914 3:36.2666 4:104.319 5:41.8779 6:8.7283 7:142.181 8:27.7076 9:44.8045 10:44.1873 11:69.8516 12:44.1873 13:69.8516 14:45.6281 15:90.5817 16:56.1149 17:98.8762 18:35.4507 19:42.5974 20:115.495 21:17.2291 22:115.495 23:17.2291 24:32.9052 25:55.3591 26:22.1149 27:30.1484 28:55.4444 29:48.2434 30:48.9269 31:48.5895 32:67.9638 33:42.8907 34:100.726 35:17.3331 36:61.5873 37:43.9852 38:144.273 39:18.1595 40:15.4334 41:52.7652 42:13.6713 43:116.565 44:28.9092 45:114.034 46:112.976 47:36.9932 48:29.2287 49:19.4279 
0 0 0 1 0 0 0 0:110.612 1:41.2174 2:115.622 3:38.3527 4:103.982 5:39.388 6:6.32233 7:147.829 8:23.4617 9:47.5246 10:46.0544 11:78.4248 12:46.0544 13:78.4248 14:51.7277 15:86.8126 16:55.0589 17:97.8348 18:34.5475 19:44.7155 20:101.569 21:20.4023 22:101.569 23:20.4023 24:38.3887 25:43.9708 26:31.529 27:25.0462 28:52.6814 29:49.6722 30:51.6248 31:51.1926 32:69.4323 33:35.3738 34:83.3865 35:20.4542 36:91.7453 37:42.9355 38:123.009 39:29.1139 40:24.8501 41:65.5148 42:21.0642 43:101.741 44:40.6631 45:90.984 46:108.108 47:38.0757 48:37.3736 49:23.82 
1 1 0.6428071424779883 1 0.4342640727619418 0.5543445511857323 1 0:102.826 1:46.0936 2:110.746 3:40.9717 4:111.049 5:33.8347 6:0.056338 7:179.816 8:35.323 9:44.4073 10:53.9149 11:81.3268 12:53.9149 13:81.3268 14:44.8062 15:87.3067 16:64.2089 17:92.5543 18:28.7438 19:46.5289 20:104.821 21:18.3663 22:104.821 23:18.3663 24:45.4162 25:35.8377 26:49.6355 27:29.0546 28:44.7466 29:40.4515 30:54.0149 31:56.1085 32:62.283 33:39.1453 34:52.9801 35:13.5385 36:127.747 37:21.9296 38:124.495 39:28.1169 40:17.1795 41:46.8241 42:11.1038 43:128.991 44:47.4666 45:111.422 46:100.874 47:55.204 48:17.8893 49:13.3744 
1 0 0 0.09546831854610656 0 0 0 0:109.822 1:43.0694 2:110.756 3:42.2951 4:102.512 5:39.8926 6:4.88804 7:159.55 8:32.022 9:44.8034 10:39.7605 11:83.4181 12:39.7605 13:83.4181 14:42.623 15:90.0301 16:57.4881 17:97.7183 18:32.1143 19:44.9243 20:108.844 21:18.3495 22:108.844 23:18.3495 24:34.454 25:44.8134 26:29.1025 27:30.6095 28:54.1046 29:40.4232 30:52.7447 31:51.9856 32:65.5379 33:44.8204 34:69.1905 35:16.4935 36:94.0856 37:28.6496 38:140.898 39:18.6216 40:16.6343 41:36.4201 42:11.4066 43:136.019 44:44.3839 45:111.55 46:108.612 47:47.0381 48:23.0704 49:18.2703 
1 0.397178231182666 0.7078421643713221 0.1841170879907653 0.5297398027559311 1 0.4583353818128034 0:121.544 1:33.1785 2:107.586 3:43.6875 4:91.439 5:48.9031 6:9.88222 7:116.267 8:29.5493 9:58.7299 10:35.1342 11:48.8568 12:35.1342 13:48.8568 14:44.1248 15:91.1219 16:56.4869 17:95.6131 18:38.8448 19:46.2873 20:111.371 21:16.9074 22:111.371 23:16.9074 24:25.5971 25:61.5873 26:16.6992 27:26.5651 28:54.4661 29:52.8811 30:43.7345 31:49.7559 32:78.7545 33:36.0419 34:97.4314 35:17.1063 36:95.1944 37:43.3153 38:137.344 39:23.8287 40:22.5902 41:81.6824 42:22.6303 43:91.0544 44:29.633 45:110.276 46:110.785 47:40.3955 48:30.2368 49:19.7712 
1 0 0.1405994265248442 0 0.1230990009478352 1 0 0:100.389 1:45.0957 2:119.266 3:35.9444 4:104.862 5:41.8285 6:8.90261 7:140.451 8:26.5805 9:44.2016 10:48.9452 11:67.249 12:48.9452 13:67.249 14:47.4872 15:89.3466 16:54.3248 17:99.9785 18:36.091 19:40.9144 20:113.812 21:17.8794 22:113.812 23:17.8794 24:37.3039 25:58.6429 26:24.7174 27:26.8645 28:57.9946 29:49.3594 30:48.6013 31:47.4077 32:69.1455 33:42.8907 34:99.5445 35:17.6257 36:58.0838 37:43.8348 38:139.073 39:20.1911 40:20.6228 41:56.8269 42:16.2324 43:111.371 44:26.6466 45:113.736 46:110.556 47:35.7539 48:30.7544 49:19.44 
0 0.4366636950711811 0 1 0 0 0 0:116.565 1:36.8699 2:109.142 3:41.142 4:103.557 5:38.2668 6:6.18293 7:159.243 8:24.5526 9:38.7922 10:59.4703 11:79.8245 12:59.4703 13:79.8245 14:52.6439 15:86.332 16:60.8643 17:94.0225 18:34.5965 19:44.4412 20:101.97 21:21.6714 22:101.97 23:21.6714 24:45.5758 25:39.0242 26:40.1355 27:23.8349 28:54.4439 29:47.7239 30:48.7195 31:47.3269 32:70.2631 33:35.0126 34:80.7539 35:21.351 36:95.4403 37:40.8919 38:131.412 39:23.0522 40:21.9296 41:46.9092 42:17.1293 43:117.607 44:40.8653 45:96.6667 46:112.671 47:34.958 48:40.1235 49:20.9276 
1 1 0.4564822405867001 1 0.2111998428168095 0.565352080707392 0.8116403993990454 0:117.908 1:33.2288 2:106.755 3:41.4634 4:100.091 5:42.3764 6:12.0165 7:141.303 8:23.2302 9:39.8806 10:61.5873 11:64.829 12:61.5873 13:64.829 14:55.7519 15:79.023 16:61.5126 17:90.7486 18:35.6175 19:46.5026 20:90.7178 21:24.8999 22:90.7178 23:24.8999 24:28.9225 25:36.66 26:36.0274 27:41.6335 28:52.5735 29:52.1614 30:51.8959 31:48.8464 32:64.9831 33:32.6115 34:65.1524 35:23.7613 36:98.1301 37:46.8779 38:99.8633 39:40.6311 40:41.8976 41:64.6962 42:33.6319 43:94.9077 44:40.8491 45:80.651 46:96.9939 47:36.9211 48:49.8793 49:33.7099 
1 0.1460618713170105 0.1628196259267572 0.1751136427308919 0.1131673355686695 0.7884823362799276 0.6477121817095453 0:104.859 1:46.1935 2:118.856 3:38.7742 4:106.434 5:40.2663 6:3.39232 7:160.463 8:33.2436 9:50.8297 10:24.3045 11:122.005 12:24.3045 13:122.005 14:43.8736 15:87.1664 16:65.3724 17:91.0846 18:30.3894 19:46.8162 20:114.216 21:16.5393 22:114.216 23:16.5393 24:45 25:45 26:28.94 27:20.3084 28:49.0377 29:40.5126 30:52.2722 31:57.2171 32:64.765 33:41.9989 34:48.4336 35:4.18108 36:144.936 37:16.8541 38:151.937 39:12.5049 40:10.6698 41:21.5014 42:5.51543 43:159.083 44:1.70135 45:177.58 46:158.839 47:14.6209 48:2.86445 49:2.41175 
0 0.7048744681147715 0 1 0 1 0 0:118.072 1:33.1113 2:107.526 3:42.1376 4:105.709 5:40.6013 6:7.49133 7:140.947 8:21.202 9:52.9922 10:51.4993 11:66.0979 12:51.4993 13:66.0979 14:62.5413 15:76.9407 16:51.1878 17:101.356 18:39.255 19:44.5404 20:95.5549 21:24.7459 22:95.5549 23:24.7459 24:36.9146 25:39.9279 26:34.6409 27:29.1975 28:53.4986 29:54.2461 30:52.0495 31:47.7958 32:71.0447 33:36.4493 34:81.1828 35:21.646 36:74.5388 37:44.1001 38:105.454 39:36.228 40:38.7598 41:59.871 42:27.07 43:105.826 44:33.4112 45:91.912 46:110.486 47:34.4678 48:52.2611 49:26.8825 
1 0.6807245860237432 0.723974543682733 0.404993092034454 0.5069371900536496 1 0.3120703580397609 0:88.0848 1:57.2463 2:129.273 3:32.2511 4:112.084 5:37.681 6:0.895174 7:175.601 8:31.4535 9:47.1129 10:30.9638 11:108.435 12:30.9638 13:108.435 14:39.3762 15:92.5638 16:62.7365 17:94.6608 18:27.8128 19:41.8221 20:107.937 21:17.3996 22:107.937 23:17.3996 24:42.0097 25:43.0401 26:29.7449 27:23.3852 28:49.9198 29:35.2145 30:62.599 31:53.7853 32:59.1444 33:47.0142 34:85.5444 35:7.42933 36:112.62 37:17.7447 38:148.285 39:13.4863 40:9.24611 41:13.134 42:4.99374 43:164.745 44:4.87206 45:171.139 46:151.699 47:15.5764 48:9.85556 49:5.88158 
1 0.623953550485214 0.7311192694863972 0.5115786883616885 0.5111855238379784 0.5186735536567697 1 0:88.7737 1:62.3933 2:123.849 3:35.8195 4:114.616 5:31.9931 6:7.61394 7:148.241 8:40.3751 9:47.6943 10:25.4193 11:129.806 12:25.4193 13:129.806 14:39.3847 15:90.8127 16:67.4528 17:91.6195 18:27.2126 19:47.9133 20:114.715 21:16.3285 22:114.715 23:16.3285 24:44.6351 25:40.6013 26:31.7595 27:18.4349 28:44.7239 29:38.1909 30:56.9591 31:60.1376 32:58.9085 33:44.6296 34:34.992 35:6.1939 36:156.371 37:12.7244 38:139.086 39:18.1634 40:9.46232 41:17.1027 42:7.0561 43:156.161 44:1.52753 45:178.152 46:151.336 47:22.0942 48:6.20002 49:6.97022 
1 1 0 1 0 0 0.5627237923031195 0:110.779 1:40.331 2:112.187 3:40.76 4:103.232 5:40.4762 6:5.7928 7:157.62 8:28.0092 9:44.2462 10:47.4896 11:82.875 12:47.4896 13:82.875 14:51.3096 15:81.2915 16:63.8113 17:89.1516 18:34.9089 19:51.3162 20:113.405 21:19.2834 22:113.405 23:19.2834 24:37.1847 25:46.3322 26:28.2174 27:25.7553 28:49.7901 29:49.1926 30:48.8568 31:49.7231 32:72.6238 33:37.5469 34:77.4447 35:14.3062 36:117.024 37:32.0378 38:121.81 39:30.0634 40:32.1267 41:70.5773 42:26.811 43:94.8645 44:40.7321 45:104.903 46:97.2597 47:50.1586 48:23.9869 49:20.4285 
1 1 1 0.6925651906425925 0.8225119784620408 1 0.8816779867016891 0:131.713 1:24.8697 2:95.9201 3:47.7161 4:91.4626 5:50.2785 6:15.187 7:86.5094 8:25.717 9:68.2824 10:38.4802 11:26.2001 12:38.4802 13:26.2001 14:54.4006 15:93.8888 16:42.7329 17:106.574 18:48.4791 19:37.2261 20:98.6156 21:22.6028 22:98.6156 23:22.6028 24:20.1707 25:57.3005 26:14.0362 27:30.9638 28:69.7751 29:63.6767 30:37.875 31:37.2664 32:90.0392 33:33.3971 34:98.4159 35:25.2034 36:54.4623 37:63.4349 38:113.983 39:33.7945 40:38.5007 41:73.3008 42:33.0309 43:90.5355 44:23.6173 45:79.3645 46:114.389 47:29.9749 48:79.6473 49:25.74 
1 0.4800929575729572 0 0.6851810241244211 0 0 0.2632785718909858 0:115.163 1:37.6182 2:109.464 3:42.8457 4:98.0792 5:43.4249 6:3.90602 7:165.225 8:33.3877 9:46.2364 10:45.5787 11:81.6561 12:45.5787 13:81.6561 14:40.199 15:91.3809 16:64.0068 17:91.8101 18:30.1191 19:47.6599 20:103.177 21:19.0245 22:103.177 23:19.0245 24:30.9638 25:45 26:32.1625 27:35.2176 28:49.0984 29:42.1448 30:53.5525 31:52.1785 32:62.8189 33:36.3921 34:67.1387 35:16.7677 36:117.308 37:36.5815 38:128.845 39:27.6162 40:18.1614 41:64.1531 42:16.3587 43:105.173 44:43.623 45:108.265 46:106.47 47:47.0638 48:20.5893 49:14.7855 
1 1 0.7154832183979839 1 0.7056806081752226 0.8097773982834111 1 0:115.745 1:36.5703 2:105.559 3:40.3745 4:103.716 5:35.6 6:3.8378 7:170.901 8:31.1414 9:31.2582 10:68.5371 11:77.2381 12:68.5371 13:77.2381 14:58.4838 15:73.1147 16:60.7984 17:91.0582 18:38.7285 19:48.8457 20:103.786 21:24.4177 22:103.786 23:24.4177 24:37.6736 25:42.1042 26:46.1425 27:35.2798 28:52.2892 29:55.3977 30:45.9367 31:49.2781 32:67.0797 33:36.3439 34:61.888 35:22.4662 36:104.437 37:44.9499 38:112.053 39:34.278 40:33.5167 41:71.633 42:29.4717 43:94.5784 44:52.1717 45:72.6844 46:88.6678 47:43.5395 48:32.5857 49:34.1214 
1 0.4323689946527713 0.4289885853108962 0.4158044265028541 0.3028475393045924 0.1826155447612162 1 0:94.3193 1:53.2688 2:121.629 3:36.5087 4:114.265 5:34.1257 6:8.1301 7:153.435 8:37.9167 9:44.3872 10:40.8151 11:115.346 12:40.8151 13:115.346 14:45.1065 15:84.911 16:73.1309 17:83.2882 18:29.6834 19:50.546 20:112.021 21:16.4548 22:112.021 23:16.4548 24:43.0355 25:47.2776 26:35.054 27:20.8024 28:46.2461 29:44.4732 30:47.7696 31:59.773 32:62.0101 33:33.1301 34:36.7214 35:7.92601 36:145.918 37:21.6976 38:132.391 39:21.7111 40:21.6148 41:40.0303 42:14.3493 43:132.745 44:23.5523 45:144.595 46:121.753 47:38.6208 48:5.87175 49:4.33748 
1 0.07805547202893287 0.1068767288446007 0.8208506791367534 0 1 0 0:130.923 1:25.9574 2:102.85 3:45.053 4:91.0719 5:50.465 6:12.2648 7:101.31 8:22.8906 9:64.0967 10:43.2643 11:39.6107 12:43.2643 13:39.6107 14:53.0847 15:89.7918 16:51.2273 17:99.7282 18:44.3987 19:41.6144 20:105.143 21:19.7497 22:105.143 23:19.7497 24:20.2826 25:50.2774 26:18.6742 27:35.9 28:61.0817 29:61.3895 30:42.0047 31:44.1346 32:85.0303 33:34.4456 34:97.8321 35:22.0809 36:73.54 37:56.5208 38:116.405 39:32.9678 40:33.3212 41:72.7839 42:29.2141 43:96.4968 44:23.8324 45:84.7293 46:115.523 47:29.2468 48:58.4919 49:22.9931 
1 0 0 0 0 0 0 0:110.283 1:42.2532 2:114.986 3:40.1731 4:103.595 5:40.3645 6:6.14185 7:145.094 8:24.9943 9:51.4698 10:38.991 11:76.7595 12:38.991 13:76.7595 14:46.203 15:91.6809 16:58.0616 17:95.9315 18:31.6985 19:43.4811 20:98.9726 21:18.7859 22:98.9726 23:18.7859 24:34.454 25:44.8134 26:26.5651 27:26.5651 28:48.8592 29:43.2349 30:54.8853 31:54.0193 32:64.0137 33:35.402 34:70.9863 35:14.3782 36:103.841 37:30.5297 38:123.024 39:27.9215 40:28.4429 41:57.1584 42:19.3658 43:112.218 44:32.5904 45:117.99 46:118.355 47:36.4645 48:36.0485 49:19.5111 
1 0.4218138937824789 0.01421842328435661 0.7770171761165572 0 0 0.05489455472420406 0:120.564 1:36.0729 2:108.435 3:45 4:100.063 5:42.4856 6:1.13491 7:174.866 8:29.8036 9:46.564 10:40.8151 11:96.009 12:40.8151 13:96.009 14:42.9062 15:91.9656 16:63.2995 17:92.6679 18:31.5188 19:51.6399 20:116.889 21:17.1626 22:116.889 23:17.1626 24:38.7434 25:53.8204 26:27.8973 27:24.2277 28:48.3958 29:42.4537 30:59.0941 31:49.7526 32:69.0108 33:41.0302 34:70.3879 35:18.9536 36:114.717 37:38.8082 38:112.906 39:30.4034 40:29.9633 41:61.3587 42:22.8566 43:106.587 44:40.5783 45:103.729 46:106.837 47:40.8151 48:26.9355 49:19.7369 
1 0.1915509816331507 0.490610918074658 0.3678449520663782 0.3876111515853185 1 0.4672131856583688 0:109.1 1:37.4792 2:112.145 3:38.2731 4:107.328 5:39.9808 6:10.122 7:134.456 8:21.3048 9:45.4007 10:51.5198 11:65.6299 12:51.5198 13:65.6299 14:49.4804 15:94.6488 16:49.0587 17:105.706 18:32.3415 19:35.0106 20:86.6253 21:20.8969 22:86.6253 23:20.8969 24:33.8034 25:39.0939 26:32.6508 27:32.9052 28:64.4919 29:43.2489 30:52.403 31:44.7365 32:67.293 33:35.9237 34:82.1677 35:19.3635 36:69.1895 37:41.436 38:132.498 39:21.5111 40:22.9842 41:37.0463 42:14.1391 43:133.21 44:29.1252 45:110.536 46:124.207 47:27.7028 48:46.2578 49:17.8073 
0.2928784927770899 0 0 0.5841189890608061 0 1 0 0:116.122 1:35.1534 2:111.586 3:39.0026 4:97.8661 5:43.6208 6:8.01584 7:142.975 8:26.41 9:48.7314 10:48.2155 11:71.2001 12:48.2155 13:71.2001 14:46.0214 15:93.7353 16:55.9228 17:97.5394 18:34.7455 19:40.4508 20:104.194 21:19.9003 22:104.194 23:19.9003 24:35.1286 25:44.6799 26:31.3287 27:27.4076 28:60.2148 29:48.9393 30:50.8725 31:47.5707 32:76.0659 33:40.2817 34:98.0746 35:19.9773 36:74.9315 37:44.6351 38:119.476 39:28.6581 40:30.2564 41:59.7436 42:22.6693 43:106.504 44:29.0249 45:101.793 46:116.038 47:32.0792 48:43.1651 49:18.3005 
0.3454942107058323 0 0.003366086000151761 0.1014786105985029 0 0.1979528846381501 0 0:114.775 1:37.6781 2:108.869 3:40.6525 4:104.093 5:37.9915 6:3.61043 7:165.651 8:28.6528 9:44.1823 10:45 11:90 12:45 13:90 14:45.9733 15:91.254 16:54.5303 17:100.649 18:35.0641 19:45.1211 20:105.376 21:20.5659 22:105.376 23:20.5659 24:35.3748 25:42.3102 26:33.4078 27:27.8524 28:53.5959 29:43.3153 30:56.1649 31:48.6097 32:67.4794 33:43.6361 34:78.1785 35:21.1757 36:78.4078 37:41.0196 38:131.34 39:21.5785 40:20.4951 41:44.4473 42:14.8485 43:125.727 44:45.944 45:93.2827 46:108.813 47:38.991 48:29.3644 49:22.2176 
-1 1 0.8188260674498459 1 0.4804794398596953 1 0.668659580296714 0:118.96 1:36.5387 2:101.135 3:44.6603 4:97.125 5:37.875 6:12.9044 7:149.621 8:29.876 9:31.5348 10:63.6767 11:69.7751 12:63.6767 13:69.7751 14:53.7348 15:76.7428 16:65.8021 17:86.3033 18:37.9397 19:44.7016 20:106.157 21:23.1709 22:106.157 23:23.1709 24:30.689 25:46.2018 26:29.6872 27:38.0272 28:56.2794 29:49.3334 30:43.157 31:45.8174 32:68.0456 33:38.8775 34:64.3119 35:24.4191 36:77.6609 37:46.8476 38:107.592 39:41.5054 40:46.8476 41:67.3801 42:35.08 43:94.9697 44:38.5092 45:74.876 46:80.2798 47:41.3425 48:50.6748 49:45.7917 
-1 0 0 0 0 0 0 0:112.62 1:40.3999 2:114.001 3:42.0288 4:101.17 5:44.2793 6:5.05332 7:139.635 8:27.156 9:56.1695 10:29.7449 11:71.5651 12:29.7449 13:71.5651 14:43.8841 15:92.7207 16:55.4258 17:99.9638 18:32.2144 19:44.7222 20:105.914 21:17.3861 22:105.914 23:17.3861 24:36.6561 25:55.4915 26:20.4099 27:21.2237 28:48.9773 29:43.0217 30:53.6054 31:55.8536 32:63.5334 33:39.5151 34:76.5302 35:12.4406 36:87.5762 37:24.5901 38:142.149 39:18.0861 40:19.5433 41:39.0139 42:12.5162 43:132.34 44:23.7703 45:137.363 46:124.654 47:34.0302 48:25.0654 49:13.6162 
-0 0 0.0352438236918732 0 0.02603267742403345 0 0 0:86.3739 1:54.2978 2:130.688 3:29.9762 4:114.368 5:36.6533 6:0.57138 7:177.343 8:29.1414 9:46.6785 10:33.1785 11:109.44 12:33.1785 13:109.44 14:43.5471 15:91.2268 16:57.7815 17:95.6335 18:33.3053 19:42.1935 20:94.0088 21:22.2466 22:94.0088 23:22.2466 24:45 25:45 26:24.7751 27:18.6767 28:50.3257 29:50.856 30:48.7769 31:59.9729 32:53.1206 33:29.2926 34:41.6629 35:8.86462 36:119.539 37:20.9151 38:128.29 39:25.1448 40:20.7723 41:40.6173 42:11.4575 43:140.058 44:21.5571 45:143.973 46:131.878 47:29.7855 48:30.3495 49:14.5522 
-0.3056024620043169 0 0 0 0 0 0 0:94.3031 1:51.9008 2:124.695 3:34.3803 4:111.57 5:37.2426 6:3.82905 7:162.706 8:33.2603 9:47.7107 10:32.5741 11:116.896 12:32.5741 13:116.896 14:44.0015 15:88.0576 16:59.7572 17:95.5951 18:31.7773 19:47.4853 20:111.569 21:16.5367 22:111.569 23:16.5367 24:43.1524 25:56.3099 26:24.444 27:18.4349 28:48.2981 29:45.3696 30:49.7356 31:60.7861 32:62.1001 33:36.0615 34:44.5165 35:7.87957 36:116.565 37:20.556 38:135.183 39:21.3301 40:16.9093 41:40.8151 42:9.57423 43:142.125 44:16.9908 45:154.44 46:137.741 47:28.6963 48:11.6784 49:9.62921 
-1 0 0 0.820535949474256 0 0 0 0:108.237 1:43.033 2:112.192 3:42.8654 4:106.158 5:40.1847 6:3.96465 7:158.385 8:29.448 9:52.7367 10:37.5457 11:80.2382 12:37.5457 13:80.2382 14:47.9626 15:85.8987 16:58.4778 17:96.0885 18:33.2444 19:48.29 20:107.852 21:17.6935 22:107.852 23:17.6935 24:35.8377 25:49.7636 26:26.9918 27:27.7699 28:50.3963 29:46.9385 30:49.8882 31:56.2169 32:68.1712 33:37.3393 34:81.0274 35:11.9854 36:98.3151 37:29.5293 38:130.533 39:26.7321 40:25.1626 41:62.7583 42:21.387 43:105.035 44:30.3791 45:125.961 46:117.525 47:39.2176 48:25.3765 49:19.4997 
-1 0.6018459493158391 0 1 0 0.1999985802007132 0 0:110.621 1:39.1549 2:115.301 3:36.6943 4:104.376 5:39.9245 6:6.20345 7:155.556 8:23.4986 9:37.6906 10:48.2155 11:85.5392 12:48.2155 13:85.5392 14:45.1567 15:86.2551 16:62.0617 17:92.9858 18:29.5426 19:47.8936 20:99.5878 21:19.8434 22:99.5878 23:19.8434 24:42.625 25:43.5243 26:32.1419 27:25.7802 28:41.4688 29:41.7672 30:58.4671 31:61.9434 32:52.5879 33:35.5469 34:59.9762 35:16.9462 36:108.435 37:30.9638 38:114.905 39:27.9784 40:35.5377 41:43.1524 42:19.734 43:124.939 44:35.3266 45:108.905 46:112.62 47:33.6901 48:40.827 49:23.1986 
-0 0.04971009580028662 0.2855846501402191 0.1155207798686905 0.1689608872603958 0.3072243373378721 0.7161264373663365 0:83.7211 1:63.755 2:125.858 3:35.2176 4:124.977 5:27.7313 6:10.5512 7:145.76 8:35.9957 9:48.2626 10:38.4181 11:121.329 12:38.4181 13:121.329 14:50.9665 15:79.1648 16:65.2852 17:90.5254 18:30.1934 19:47.0776 20:97.926 21:20.403 22:97.926 23:20.403 24:37.0469 25:31.4902 26:45 27:23.1986 28:47.3066 29:45.5846 30:49.8739 31:58.7363 32:59.8994 33:31.0475 34:15.5863 35:3.99441 36:158.703 37:11.9151 38:119.449 39:29.7845 40:21.762 41:40.7636 42:11.0937 43:144.462 44:24.444 45:144.462 46:118.301 47:40.9144 48:4.76364 49:4.08562 
-1 0 0 0.3455512104570529 0 0.1095333855236507 0 0:116.268 1:38.3585 2:110.956 3:42.6006 4:98.0142 5:43.7854 6:4.8739 7:150.503 8:29.8879 9:51.7489 10:32.4712 11:77.9052 12:32.4712 13:77.9052 14:38.4838 15:96.6905 16:60.7094 17:95.9344 18:33.2807 19:45.7239 20:118.534 21:15.4889 22:118.534 23:15.4889 24:35.3287 25:56.0035 26:20.556 27:24.444 28:54.75 29:42.6461 30:53.9537 31:49.4818 32:74.9119 33:41.1249 34:83.7175 35:16.9339 36:98.9639 37:38.7933 38:136.015 39:20.9411 40:26.8825 41:55.0607 42:19.9424 43:112.122 44:29.5007 45:120.339 46:118.599 47:35.4069 48:31.6975 49:18.5563 
-0.656173572589159 0 0 0 0 0 0 0:112.635 1:38.9713 2:116.565 3:38.6598 4:99.5212 5:45.3248 6:3.6168 7:158.791 8:27.662 9:47.4689 10:30.9638 11:90 12:30.9638 13:90 14:39.6809 15:96.5075 16:56.6593 17:98.9726 18:35.2176 19:45 20:110.072 21:17.5924 22:110.072 23:17.5924 24:39.5597 25:41.4677 26:28.2174 27:25.7553 28:52.4609 29:44.9064 30:53.4538 31:54.8132 32:69.5196 33:43.0021 34:102.095 35:12.5288 36:96.4159 37:28.3748 38:138.336 39:19.2307 40:20.9451 41:43.8249 42:14.5781 43:127.255 44:25.5081 45:128.82 46:126.789 47:29.9425 48:26.5868 49:14.8972 
-0 0.1582528060937249 0.2829767583382327 0 0.1689320005476495 1 0.1299793746803726 0:106.59 1:42.2834 2:115.367 3:38.3825 4:101.021 5:44.0179 6:7.91674 7:128.454 8:29.1047 9:50.4038 10:31.1331 11:63.9465 12:31.1331 13:63.9465 14:36.9981 15:103.986 16:49.6355 17:107.354 18:33.2749 19:38.2902 20:99.9894 21:15.9209 22:99.9894 23:15.9209 24:35.7761 25:56.853 26:18.11 27:21.6504 28:61.8214 29:38.6598 30:55.3597 31:47.9924 32:74.6301 33:40.5056 34:98.1301 35:15.0685 36:53.5609 37:26.89 38:147.642 39:13.4272 40:18.8384 41:25.6719 42:9.98595 43:148.194 44:14.5834 45:148.008 46:135.31 47:24.4867 48:29.5158 49:8.67859 
-0.3703295623216377 0.1294223921424585 0.1746563581807729 0.2271024787432115 0.1024754280627659 0 0.645175510084121 0:81.1156 1:60.4272 2:132.703 3:29.1662 4:116.19 5:34.9634 6:3.50173 7:164.35 8:33.4931 9:46.3953 10:31.3287 11:114.341 12:31.3287 13:114.341 14:43.7769 15:89.4881 16:64.6951 17:90.3778 18:28.4168 19:46.5398 20:98.0429 21:18.189 22:98.0429 23:18.189 24:36.2538 25:43.4413 26:33.6901 27:29.7449 28:42.8764 29:41.3645 30:58.9568 31:64.2521 32:49.5739 33:36.7177 34:30.0184 35:5.91393 36:155.032 37:15.8637 38:151.189 39:13.4345 40:3.69139 41:6.61346 42:2.39289 43:171.816 44:4.51399 45:173.157 46:163.072 47:11.0035 48:6.54629 49:4.45725 
-1 0.3618966449584332 0.3785147412034265 0.5151955202762878 0.2062879153263493 1 0.09387722561507181 0:100.834 1:43.2548 2:115.064 3:38.9302 4:108.174 5:41.5379 6:11.1818 7:128.454 8:24.7467 9:47.1832 10:48.9794 11:54.7276 12:48.9794 13:54.7276 14:45.0357 15:95.5412 16:51.0919 17:103.225 18:32.2756 19:35.1045 20:100.989 21:17.6867 22:100.989 23:17.6867 24:33.6901 25:50.1944 26:27.7766 27:35.9915 28:62.5256 29:40.7636 30:56.0849 31:46.9192 32:65.8545 33:47.0454 34:108.435 35:17.4027 36:60.9088 37:41.1859 38:129.094 39:22.8337 40:29.4697 41:42.1455 42:18.8906 43:123.818 44:19.7322 45:118.179 46:118.179 47:28.7507 48:51.8809 49:23.01 
-0 0 0.04542307742485193 0.1378070431192744 0.02865562387625264 0 0 0:106.009 1:46.7357 2:115.698 3:42.2413 4:103.548 5:41.1138 6:0.763898 7:176.634 8:35.5084 9:49.728 10:39.8978 11:93.3665 12:39.8978 13:93.3665 14:36.7986 15:92.7448 16:67.5735 17:90.9377 18:26.0406 19:44.1 20:101.511 21:17.7749 22:101.511 23:17.7749 24:41.491 25:49.6605 26:32.981 27:26.4714 28:46.4565 29:38.9634 30:56.4766 31:57.9191 32:56.3099 33:33.6901 34:39.8787 35:9.93823 36:131.287 37:27.0875 38:130.415 39:22.967 40:21.3356 41:41.4375 42:14.2609 43:131.108 44:20.8095 45:151.343 46:127.046 47:37.6096 48:3.40897 49:2.5533 
-1 1 0.5211458227538379 1 0.4343379726400683 0.7124342125605463 1 0:120.16 1:33.2195 2:107.592 3:40.5028 4:107.131 5:37.1328 6:6.68202 7:161.253 8:18.4349 9:26.5651 10:62.5398 11:81.4913 12:62.5398 13:81.4913 14:53.6314 15:79.8474 16:62.5372 17:92.7338 18:32.7744 19:49.4275 20:95.7491 21:23.5363 22:95.7491 23:23.5363 24:54.7133 25:24.8268 26:48.4166 27:25.4783 28:45.3271 29:50.1109 30:50.7366 31:57.6665 32:61.7406 33:27.7045 34:59.2864 35:18.9054 36:112.788 37:30.8445 38:99.6888 39:41.0995 40:43.033 41:67.6018 42:31.7778 43:99.1489 44:48.4946 45:76.6447 46:87.7803 47:40.5074 48:42.9152 49:37.8704 
-0 0.2553939122825508 0.381487859635645 0 0.2250059083758004 1 0.1324597764027647 0:105.255 1:43.3153 2:117.255 3:37.5041 4:102.488 5:42.8721 6:5.29078 7:149.922 8:29.7107 9:47.7679 10:33.1785 11:76.7595 12:33.1785 13:76.7595 14:39.7819 15:101.189 16:53.6864 17:102.894 18:28.9479 19:38.0572 20:110.868 21:17.2476 22:110.868 23:17.2476 24:35.9807 25:59.4086 26:20.2826 27:26.4531 28:53.1464 29:37.4663 30:66.1195 31:50.2939 32:56.5237 33:54.6375 34:116.565 35:11.8887 36:63.5469 37:28.4088 38:149.91 39:12.8865 40:12.4396 41:22.6199 42:9.07905 43:147.44 44:12.1715 45:152.354 46:137.386 47:22.6938 48:23.0264 49:12.084 
-1 0.6454788529014746 0.03521389831571229 1 0.007728854116347219 0 0 0:105.986 1:42.0904 2:115.916 3:38.9698 4:109.647 5:38.3118 6:3.41094 7:164.291 8:25.0398 9:49.2516 10:43.4518 11:86.8202 12:43.4518 13:86.8202 14:45.552 15:88.1054 16:69.2277 17:87.3676 18:33.43 19:49.2356 20:121.741 21:15.7799 22:121.741 23:15.7799 24:41.6933 25:42.9174 26:27.8973 27:24.2277 28:55.1755 29:50.4403 30:44.089 31:51.3465 32:77.8427 33:33.014 34:85.8522 35:16.0034 36:109.245 37:39.2291 38:138.366 39:20.3156 40:24.6236 41:60.182 42:20.1795 43:109.231 44:30.4381 45:108.221 46:104.562 47:38.0888 48:27.6499 49:18.8982 
-1 0 0 0.05865836326765715 0 0 0 0:112.106 1:40.9456 2:113.953 3:42.3952 4:99.7931 5:44.5568 6:2.51017 7:165.779 8:31.6375 9:52.516 10:35.2996 11:84.6991 12:35.2996 13:84.6991 14:43.0364 15:89.0744 16:63.3402 17:90.7582 18:30.7219 19:45.3605 20:105.672 21:16.2655 22:105.672 23:16.2655 24:38.1944 25:49.9321 26:29.7184 27:27.0915 28:49.5962 29:44.3489 30:47.4836 31:56.7704 32:68.5342 33:33.3348 34:66.4658 35:11.1827 36:124.983 37:28.8847 38:132.797 39:25.3462 40:20.6375 41:65.8545 42:16.7293 43:110.245 44:36.1164 45:124.885 46:110.645 47:49.4522 48:16.1091 49:12.3103 
-0 0.3747450054234047 0.5686990306034587 0.1293312911183309 0.333973091038557 0.3239786376179742 0.1311142007601459 0:105.921 1:43.9249 2:122.533 3:35.5205 4:95.5908 5:46.8147 6:1.57862 7:161.834 8:34.3773 9:59.3786 10:15.5416 11:88.7811 12:15.5416 13:88.7811 14:37.403 15:97.1077 16:60.0458 17:94.867 18:31.6201 19:45.5862 20:110.077 21:18.5306 22:110.077 23:18.5306 24:33.9965 25:69.574 26:10.6812 27:14.8422 28:51.7262 29:45.3127 30:59.177 31:53.7537 32:65.698 33:39.7937 34:56.6775 35:9.2681 36:116.453 37:30.9022 38:112.597 39:30.797 40:33.5788 41:43.5856 42:19.6021 43:130.03 44:0.741172 45:178.636 46:152.508 47:15.7388 48:11.5538 49:4.61832 
-0 0.2818227447427574 0.4002747332893925 0.1104334469271279 0.2352203253544524 0.2958175329130255 0 0:97.125 1:53.1301 2:123.522 3:38.3773 4:110.756 5:39.8787 6:4.15538 7:151.837 8:32.7531 9:54.7097 10:18.4349 11:135 12:18.4349 13:135 14:40.3288 15:93.1157 16:57.1849 17:98.9119 18:31.2431 19:44.7346 20:108.038 21:16.9403 22:108.038 23:16.9403 24:41.0652 25:46.3322 26:26.5651 27:18.4349 28:47.2648 29:43.9806 30:50.8446 31:62.354 32:59.2645 33:39.9465 34:12.3005 35:0.965942 36:171.87 37:0.535459 38:152.526 39:13.2986 40:3.51194 41:8.70737 42:1.00509 43:175.815 44:16.2602 45:155.925 46:177.46 47:1.6892 48:5.90614 49:3.91316 
-0.3313743881411178 0 0 0 0 0 0.1067295580245861 0:92.1476 1:54.1623 2:133.449 3:29.6118 4:105.255 5:42.5104 6:0.588451 7:177.596 8:28.5596 9:40.1355 10:37.7368 11:101.434 12:37.7368 13:101.434 14:42.5521 15:88.6984 16:68.8892 17:86.4869 18:29.6211 19:48.9794 20:106.266 21:18.2104 22:106.266 23:18.2104 24:45 25:45 26:29.7837 27:25.949 28:44.8433 29:46.0598 30:55.932 31:61.1787 32:57.3239 33:34.2904 34:41.4965 35:6.10609 36:133.127 37:21.7835 38:121.515 39:27.1423 40:25.727 41:44.3214 42:16.9715 43:132.025 44:13.2474 45:158.867 46:132.572 47:29.2629 48:8.61177 49:6.49853 
-0 0 0 0 0 0 0.08661509670498609 0:96.5512 1:56.2632 2:117.851 3:42.7094 4:113.958 5:36.0229 6:6.20097 7:154.359 8:37.8415 9:46.8358 10:25.0576 11:126.87 12:25.0576 13:126.87 14:40.9749 15:89.1199 16:67.7241 17:87.93 18:28.9212 19:45.2377 20:109.069 21:16.6909 22:109.069 23:16.6909 24:39.0939 25:36.8699 26:30.2964 27:22.8337 28:49.1347 29:42.7959 30:48.106 31:57.505 32:64.7651 33:35.8903 34:23.8117 35:3.61981 36:153.987 37:12.1205 38:156.954 39:11.0855 40:2.41796 41:5.60927 42:1.08826 43:175.83 44:20.4164 45:154.895 46:174.719 47:4.03341 48:15.2551 49:13.4957 
-0.3595486230243739 0 0 0 0 0 0.1271665151396383 0:89.3608 1:56.9312 2:122.856 3:36.2898 4:122.616 5:29.6473 6:6.17018 7:152.975 8:31.338 9:53.9918 10:31.7595 11:124.095 12:31.7595 13:124.095 14:47.9713 15:84.7539 16:63.1685 17:95.0138 18:29.0332 19:46.7168 20:106.972 21:17.8199 22:106.972 23:17.8199 24:37.6588 25:38.1153 26:33.8049 27:21.1532 28:46.116 29:42.0599 30:54.0218 31:54.082 32:63.3341 33:34.4424 34:28.0631 35:5.06173 36:157.495 37:13.8447 38:120.211 39:29.8793 40:25.6937 41:48.262 42:16.3895 43:128.073 44:21.3706 45:144.958 46:117.945 47:38.1209 48:9.3579 49:7.39528 
-1 0.03740120204041492 0.03936368273490202 0 0.02446047617871217 0 0.2657472432801877 0:92.9508 1:56.4465 2:130.547 3:33.1287 4:108.617 5:40.271 6:5.7514 7:148.671 8:33.6361 9:51.804 10:24.2277 11:127.875 12:24.2277 13:127.875 14:37.1782 15:94.842 16:63.7551 17:94.217 18:29.8108 19:45.8045 20:121.891 21:15.3388 22:121.891 23:15.3388 24:51.1155 25:48.9452 26:26.5651 27:18.4349 28:50.7004 29:39.7212 30:57.4204 31:51.6827 32:68.4986 33:42.2475 34:62.1027 35:6.97277 36:134.421 37:23.6821 38:133.132 39:21.46 40:19.9538 41:31.1421 42:12.3843 43:143.336 44:1.40863 45:177.51 46:149.311 47:17.6811 48:1.1233 49:0.612402 
-0.2357459388373489 0.5983753430269925 0.8464837218257238 0.3962664837793835 0.4971997418227661 0.8554746207864986 0.3196077366832623 0:91.4715 1:61.9002 2:126.493 3:35.3982 4:107.637 5:36.9349 6:4.13251 7:91.6603 8:38.5318 9:62.9805 10:4.39871 11:157.166 12:4.39871 13:157.166 14:31.9192 15:105.924 16:60.6877 17:98.585 18:31.6064 19:44.0457 20:127.611 21:13.3844 22:127.611 23:13.3844 24:34.7317 25:62.8297 26:9.63754 27:10.4077 28:55.2912 29:40.7315 30:50.297 31:52.342 32:66.9469 33:46.0212 34:125.961 35:3.51194 36:136.941 37:19.2744 38:157.4 39:10.7327 40:23.815 41:50.2762 42:18.98 43:124.071 44:27.3711 45:125.194 46:160.921 47:10.4462 48:42.4686 49:18.4983 
-0.2804208694659462 0.7055443216676375 0.9796109034835212 0.4582297057918656 0.584331038487362 1 0.5833196312688026 0:108.265 1:49.8354 2:109.991 3:47.9038 4:105.828 5:35.2996 6:10.5754 7:150.871 8:46.4906 9:43.0942 10:48.8879 11:101.81 12:48.8879 13:101.81 14:37.923 15:85.5133 16:81.2926 17:78.8887 18:24.5775 19:55.8155 20:121.826 21:15.0695 22:121.826 23:15.0695 24:29.2914 25:43.7811 26:42.8789 27:39.0939 28:40.8644 29:34.4725 30:61.8732 31:54.0512 32:59.1511 33:43.9641 34:39.7748 35:17.0298 36:141.054 37:29.8048 38:120.814 39:31.6367 40:8.04289 41:68.9625 42:8.1301 43:100.305 44:135 45:38.1572 46:12.9946 47:163.301 48:10.722 49:23.1063 
-0 0.5303734126954585 0.564325114271469 0.1224345914665855 0.3542208963746292 0.5763583622381155 0.6665708923098062 0:104.621 1:46.273 2:120.964 3:35.5377 4:101.944 5:39.822 6:2.22396 7:170.865 8:34.6952 9:45 10:33.1785 11:109.44 12:33.1785 13:109.44 14:39.1654 15:88.6376 16:77.7064 17:81.5303 18:29.5493 19:51.7019 20:125.484 21:15.2879 22:125.484 23:15.2879 24:45 25:45 26:27.1811 27:20.9987 28:48.5355 29:44.9178 30:47.4694 31:54.6354 32:67.8337 33:37.0617 34:74.9816 35:13.1134 36:118.4 37:32.8874 38:144.866 39:17.8503 40:12.3832 41:79.0609 42:13.3693 43:95.3893 44:66.2716 45:89.3704 46:74.1975 47:76.9002 48:5.77094 49:9.97771 
-0.4765016971560475 0.5026867146897317 0.7176834499950047 0.4987321648957068 0.4171663085617097 0.7582354834389087 0.2518694642660758 0:104.735 1:42.649 2:113.821 3:40.8391 4:110.631 5:39.2691 6:7.756 7:124.891 8:23.0571 9:58.7428 10:31.6755 11:64.2307 12:31.6755 13:64.2307 14:43.3171 15:97.9142 16:53.6713 17:97.915 18:34.6722 19:43.2222 20:89.9131 21:20.098 22:89.9131 23:20.098 24:16.9275 25:32.4712 26:23.1063 27:43.2643 28:55.7253 29:50.2331 30:47.2401 31:52.1863 32:60.6312 33:29.2528 34:68.1986 35:16.0908 36:137.955 37:28.3886 38:134.454 39:22.8133 40:17.4394 41:37.5686 42:11.3921 43:140.711 44:30.0184 45:108.104 46:120.99 47:29.7671 48:72.6933 49:20.6245 
-0 0.7811647466205465 0.1104275688584495 0 0.07303876693616272 0.09207434118182233 1 0:108.307 1:48.2448 2:106.074 3:50.627 4:114.656 5:32.9115 6:5.31455 7:161.445 8:36.2783 9:47.4026 10:42.8789 11:105.362 12:42.8789 13:105.362 14:51.3875 15:81.1361 16:65.6444 17:89.3162 18:29.836 19:46.6594 20:98.9938 21:19.9908 22:98.9938 23:19.9908 24:40.7462 25:35.2176 26:44.2428 27:25.2011 28:45.5395 29:42.6439 30:51.1204 31:55.6532 32:62.359 33:34.3009 34:39.3387 35:10.4447 36:139.867 37:18.0761 38:117.195 39:31.2738 40:23.3607 41:59.8211 42:16.0976 43:113.839 44:56.8818 45:104.457 46:82.9063 47:72.0246 48:7.25046 49:7.40026 
-0.2607194039502961 0.4705180811047462 0.5748050997987855 0.2345410441695609 0.3370219931618983 0.6153799245585879 0.3696677817934782 0:70.1176 1:76.6075 2:133.702 3:30.5684 4:124.672 5:28.7006 6:10.7625 7:141.096 8:42.2706 9:47.866 10:30.9638 11:125.838 12:30.9638 13:125.838 14:45.5623 15:79.5872 16:71.5651 17:86.8202 18:27.435 19:45.958 20:101.186 21:18.7262 22:101.186 23:18.7262 24:40.9555 25:44.3839 26:34.6551 27:23.4897 28:46.9462 29:38.7914 30:54.2942 31:57.1092 32:54.6888 33:34.439 34:5.71059 35:1.36393 36:163.859 37:10.9295 38:140.711 39:19.4905 40:16.46 41:38.8448 42:10.2512 43:141.009 44:1.33222 45:178.391 46:135.546 47:36.0274 48:9.32259 49:9.38915 
-0.1919863594438187 0.5448136857476379 0.7679048114557691 0.3641835123196284 0.4504687737794167 0.9919487498786493 0.3007618196087654 0:87.8728 1:56.9186 2:133.232 3:27.7313 4:101.819 5:42.7358 6:0.542215 7:162.759 8:37.6179 9:54.3684 10:3.36646 11:135 12:3.36646 13:135 14:35.0868 15:96.8222 16:64.7961 17:93.1271 18:31.2392 19:43.4926 20:133.122 21:13.6713 22:133.122 23:13.6713 24:29.8925 25:81.7029 26:4.39871 27:6.91123 28:57.0594 29:44.0227 30:53.8264 31:51.1155 32:65.321 33:51.6592 34:148.57 35:5.8696 36:112.834 37:30.4766 38:167.905 39:5.90614 40:4.65551 41:27.0309 42:3.94152 43:155.179 44:13.5526 45:141.285 46:169.356 47:5.2663 48:27.0204 49:14.3134 
-0 0.159985384780679 0.2316495983772836 0.06262573412869853 0.1364193606771449 1 0 0:104.036 1:47.4896 2:122.125 3:36.0851 4:100.238 5:42.816 6:1.16124 7:165.964 8:34.7618 9:56.4702 10:12.9946 11:122.005 12:12.9946 13:122.005 14:34.9907 15:98.313 16:61.409 17:96.1075 18:30.8984 19:45.342 20:127.605 21:12.8026 22:127.605 23:12.8026 24:35.3948 25:60.9454 26:19.8374 27:19.7223 28:52.1997 29:41.3198 30:53.502 31:55.6081 32:67.8737 33:47.6324 34:94.3987 35:6.13222 36:125.897 37:24.121 38:148.835 39:13.3078 40:9.55037 41:19.2775 42:5.50234 43:160.408 44:4.34501 45:172.086 46:159.884 47:11.7469 48:5.82864 49:3.5591 
-0.9787932470159354 0 0 0.09042681305320702 0 0 0 0:109.058 1:46.0609 2:116.147 3:42.0391 4:101.906 5:41.3067 6:0.586876 7:176.505 8:33.4763 9:52.4652 10:27.4287 11:105.018 12:27.4287 13:105.018 14:43.2643 15:87.9216 16:64.44 17:91.2855 18:31.181 19:46.8398 20:108.798 21:17.2982 22:108.798 23:17.2982 24:35.5377 25:43.1524 26:31.2777 27:27.7585 28:50.9187 29:43.95 30:48.1698 31:56.2901 32:66.2807 33:37.1079 34:62.7595 35:9.73714 36:137.707 37:24.0271 38:143.616 39:18.3501 40:10.1247 41:41.2155 42:7.95308 43:137.406 44:28.3008 45:142.125 46:125.134 47:41.0548 48:0.986002 49:0.98425 
-0.08161539355730033 0.4580406978156867 0.6562392833109798 0.246895900320313 0.3834378439382366 0.775537964785463 0.2503401586908125 0:118.343 1:36.7065 2:108.841 3:44.4524 4:91.7135 5:49.3383 6:9.16437 7:99.6888 8:31.9378 9:60.9082 10:17.4027 11:30.9638 12:17.4027 13:30.9638 14:38.8619 15:97.5104 16:56.336 17:98.1256 18:35.5479 19:43.6678 20:118.413 21:15.6325 22:118.413 23:15.6325 24:27.5349 25:61.46 26:14.0362 27:26.5651 28:56.7721 29:47.933 30:46.7386 31:50.7007 32:73.4399 33:42.3833 34:108.286 35:12.422 36:98.7462 37:33.0239 38:155.206 39:12.7763 40:11.2794 41:55.7625 42:9.61316 43:120.5 44:11.3365 45:160.393 46:142.411 47:24.9964 48:15.6185 49:9.13751 
-0.1641437639297393 0.6457313687147483 0 0.2839222376602285 0 0 0 0:112.932 1:41.8779 2:114.444 3:42.0391 4:100.246 5:42.1628 6:2.64255 7:170.838 8:35.0201 9:42.6408 10:45.4815 11:99.9262 12:45.4815 13:99.9262 14:40.7083 15:88.5342 16:66.0894 17:90.8708 18:28.5118 19:47.8672 20:105.105 21:18.4246 22:105.105 23:18.4246 24:41.1859 25:45 26:39.4725 27:26.5651 28:48.2783 29:42.1744 30:52.5976 31:56.4575 32:61.5529 33:35.0143 34:49.4846 35:14.3686 36:136.081 37:27.7108 38:126.422 39:27.8825 40:20.4132 41:54.6282 42:16.925 43:113.847 44:52.5946 45:106.39 46:94.9392 47:59.8757 48:8.86708 49:8.72843 
-0.3528823042719207 0 0 0 0 1 0.01793723469910495 0:108.641 1:41.8202 2:118.496 3:37.875 4:102.84 5:42.9356 6:1.3484 7:170.175 8:28.6754 9:53.0759 10:25.9534 11:97.2532 12:25.9534 13:97.2532 14:43.5246 15:91.452 16:59.4549 17:95.3847 18:33.4431 19:44.8501 20:117.15 21:15.5597 22:117.15 23:15.5597 24:40.4261 25:45.8425 26:26.4369 27:24.2037 28:51.2086 29:42.8924 30:52.5563 31:53.0476 32:72.3608 33:42.5983 34:103.241 35:9.13962 36:122.293 37:25.0462 38:153.435 39:11.3099 40:15.124 41:27.1497 42:8.91493 43:148.251 44:10.3048 45:160.484 46:148.1 47:19.4227 48:13.1673 49:7.14234 
-0 0.2795379529282931 0.3907427085478982 0.1459167175752538 0.2285081700393729 0.3612985148872533 0.1523907780186519 0:109.822 1:40.8376 2:119.849 3:37.6451 4:93.6463 5:50.9485 6:2.31785 7:130.946 8:34.3645 9:59.1314 10:8.29714 11:60.2551 12:8.29714 13:60.2551 14:36.9037 15:97.4051 16:61.1134 17:93.9452 18:32.1154 19:44.3855 20:118.305 21:15.7628 22:118.305 23:15.7628 24:33.2544 25:66.6719 26:13.0456 27:19.3018 28:55.7912 29:46.0975 30:50.0188 31:52.3203 32:68.8546 33:40.4821 34:118.21 35:7.23767 36:113.106 37:28.0092 38:142.306 39:18.1918 40:16.1892 41:44.7562 42:12.586 43:131.583 44:5.6748 45:168.476 46:160.56 47:11.4966 48:5.80673 49:2.13674 
-0 0.1569593612109052 0.3126121713114132 0 0.1743795981514371 0.3404978807945848 0.350622466492562 0:85.6304 1:51.784 2:129.699 3:28.9024 4:120.029 5:31.923 6:4.34872 7:164.558 8:28.9904 9:44.7285 10:48.5035 11:107.103 12:48.5035 13:107.103 14:51.2263 15:80.7559 16:61.9723 17:94.8136 18:28.5304 19:49.488 20:99.8095 21:17.634 22:99.8095 23:17.634 24:50.7278 25:38.3226 26:42.1844 27:17.4364 28:42.6908 29:45.4486 30:50.9652 31:60.2452 32:65.7061 33:27.3415 34:41.2847 35:6.78675 36:147.965 37:16.8518 38:107.734 39:37.3284 40:39.5817 41:56.2308 42:24.741 43:111.869 44:25.1102 45:130.149 46:115.429 47:36.5662 48:31.8063 49:19.5674 
-0.9301126313215882 0 0 0 0 0.5928513437284793 0 0:114.799 1:39.3865 2:110.201 3:43.4027 4:103.221 5:41.1292 6:3.47573 7:159.937 8:28.3034 9:49.9774 10:33.6901 11:90 12:33.6901 13:90 14:41.632 15:98.0475 16:57.0049 17:98.5255 18:31.5718 19:42.6894 20:108.255 21:17.8731 22:108.255 23:17.8731 24:43.3967 25:47.5031 26:24.0343 27:19.281 28:54.7167 29:44.3377 30:53.6451 31:53.81 32:69.1895 33:40.5045 34:97.9167 35:15.6204 36:102.724 37:32.2756 38:141.129 39:18.3358 40:10.0537 41:27.1811 42:7.04096 43:150.068 44:25.1812 45:132.709 46:135 47:26.5651 48:24.8174 49:11.4323 
-1 0 0.03266914823104974 0 0.02059893430729086 0 0 0:111.27 1:42.4102 2:114.162 3:41.621 4:98.0792 5:43.4249 6:0.246609 7:178.898 8:36.7352 9:48.1779 10:35.8112 11:96.009 12:35.8112 13:96.009 14:36.4193 15:97.0815 16:62.2243 17:94.9627 18:28.8702 19:45.2586 20:102.421 21:18.1698 22:102.421 23:18.1698 24:36.228 25:47.5511 26:31.866 27:29.2914 28:47.4717 29:39.0094 30:57.1928 31:55.2794 32:58.9125 33:38.627 34:67.6605 35:13.9125 36:121.866 37:30.8277 38:146.099 39:16.7984 40:11.9854 41:38.8074 42:10.2007 43:129.527 44:31.3571 45:133.234 46:119.57 47:41.0353 48:7.21772 49:5.37774 
-0.5150608325919682 0.02796107347965937 0.02603173293638067 0 0.02833393654894764 1 0 0:120.643 1:32.4065 2:111.809 3:40.2413 4:92.5031 5:50.1022 6:8.77713 7:111.518 8:26.2676 9:58.5203 10:32.1712 11:51.9728 12:32.1712 13:51.9728 14:42.6841 15:97.8789 16:52.0507 17:101.114 18:36.1722 19:39.3344 20:100.996 21:18.3595 22:100.996 23:18.3595 24:27.5349 25:61.46 26:14.5002 27:21.0375 28:59.679 29:47.3573 30:50.7216 31:47.1814 32:75.0809 33:37.9739 34:100.875 35:17.0498 36:91.1288 37:39.4725 38:135.566 39:22.7978 40:24.3625 41:63.4349 42:18.1591 43:109.026 44:22.2361 45:120.579 46:124.393 47:30.2532 48:38.9467 49:15.5671 
-0.06573619075618989 0 0 0 0 0 0 0:113.199 1:41.1859 2:111.746 3:42.2446 4:93.3665 5:44.8134 6:1.98999 7:169.935 8:39.6991 9:49.9392 10:30.5102 11:89.4213 12:30.5102 13:89.4213 14:36.831 15:96.8892 16:58.6724 17:96.3947 18:33.1727 19:45.0328 20:113.839 21:17.629 22:113.839 23:17.629 24:35.7539 25:52.125 26:24.1158 27:24.8293 28:53.843 29:41.209 30:53.8904 31:49.9503 32:71.1616 33:46.7357 34:86.4348 35:12.9407 36:100.708 37:27.3189 38:144.914 39:17.0434 40:12.5553 41:38.991 42:9.12175 43:135.744 44:16.6992 45:156.801 46:135 47:32.9052 48:1.4232 49:1.20923 
-0 1 0.3692469300229908 0.2602199046973399 0.25235191829204 0.3343975314547611 1 0:100.62 1:50.9061 2:114.108 3:42.0263 4:116.743 5:30.4518 6:8.0344 7:158.254 8:36.5635 9:43.1588 10:61.3139 11:94.316 12:61.3139 13:94.316 14:49.5359 15:77.6417 16:69.4293 17:87.0643 18:29.633 19:50.1586 20:107.103 21:17.5924 22:107.103 23:17.5924 24:36.8699 25:34.6952 26:58.6713 27:27.5973 28:43.963 29:44.6146 30:47.4073 31:59.2967 32:64.4036 33:33.1011 34:34.7587 35:15.0049 36:142.765 37:23.1986 38:119.143 39:31.4296 40:19.1226 41:47.1747 42:11.7076 43:132.207 44:58.836 45:93.8141 46:86.6891 47:60.5449 48:18.0296 49:19.3008 
-1 0 0 0.251995446936496 0 0 0.938622896667072 0:92.1537 1:51.6702 2:124.355 3:33.5006 4:112.7 5:35.9051 6:0.173099 7:179.421 8:30.9638 9:40.6013 10:52.0013 11:91.3426 12:52.0013 13:91.3426 14:44.6719 15:85.3796 16:65.047 17:90.8518 18:29.5661 19:46.727 20:106.058 21:17.2619 22:106.058 23:17.2619 24:36.8699 25:43.6678 26:42.4081 27:33.0917 28:47.397 29:41.7845 30:52.6884 31:56.8374 32:58.3854 33:36.7784 34:54.7226 35:14.1446 36:139.512 37:27.1329 38:139.899 39:19.2464 40:16.1892 41:32.1773 42:11.7251 43:139.764 44:35.6363 45:117.666 46:108.866 47:41.4552 48:18.1442 49:14.9176 
-1 0 0 0.116442926341357 0 0 0.7086450997730719 0:107.066 1:46.1207 2:113.69 3:42.6752 4:104.878 5:39.2713 6:5.9738 7:155.06 8:40.3395 9:48.9825 10:29.7449 11:117.979 12:29.7449 13:117.979 14:36.1796 15:92.3373 16:67.9559 17:89.2811 18:27.4511 19:46.879 20:107.988 21:16.382 22:107.988 23:16.382 24:37.4054 25:45 26:30.9638 27:25.3462 28:46.217 29:39.9117 30:51.7337 31:60.5725 32:60.4382 33:35.0268 34:32.1644 35:8.10762 36:146.747 37:21.1865 38:138.846 39:19.3169 40:13.8407 41:27.9795 42:8.88244 43:148.431 44:12.195 45:164.655 46:135.947 47:33.3233 48:9.4686 49:9.08304 
-0.1889024380534548 0.5312219247747285 0.7517787502172033 0.3522442976584555 0.440955922985332 0.7823257954302256 0.2608721348224846 0:80.6796 1:66.4854 2:142.109 3:25.4798 4:109.701 5:40.0156 6:8.24345 7:119.291 8:35.7539 9:57.4259 10:6.34019 11:165.964 12:6.34019 13:165.964 14:37.141 15:90.8698 16:67.8978 17:90.3302 18:28.4072 19:45.108 20:127.487 21:14.0002 22:127.487 23:14.0002 24:47.7263 25:52.5785 26:21.3706 27:13.3245 28:54.4232 29:38.1939 30:52.7447 31:52.2369 32:67.8844 33:45.7809 34:32.7352 35:1.95993 36:154.25 37:15.6859 38:165.256 39:6.61346 40:2.2026 41:3.50799 42:2.72631 43:171.563 44:24.7751 45:136.79 46:178.21 47:0.994187 48:25.0357 49:16.6791 
-0.8033394770374467 0 0 0 0 0 0 0:99.1372 1:48.6537 2:123.2 3:36.2224 4:103.371 5:42.9627 6:0 7:180 8:34.2917 9:45.8425 10:41.6335 11:95.1022 12:41.6335 13:95.1022 14:37.309 15:93.3023 16:65.4623 17:93.1108 18:27.512 19:45.5787 20:102.414 21:18.6906 22:102.414 23:18.6906 24:45.7848 25:48.8506 26:30.3236 27:21.9296 28:45.6296 29:39.4007 30:60.2008 31:56.8668 32:58.2739 33:37.3217 34:56.9667 35:11.9778 36:115.56 37:25.5359 38:120.833 39:26.2141 40:25.9667 41:40.927 42:16.1347 43:129.99 44:22.3703 45:144.874 46:127.603 47:33.2036 48:20.806 49:13.1123 
-1 1 0 1 0 0.05491500483760445 1 0:115.741 1:38.682 2:109.66 3:44.7111 4:99.7436 5:42.776 6:2.77917 7:168.69 8:32.0765 9:48.7346 10:46.8183 11:83.4181 12:46.8183 13:83.4181 14:47.4526 15:81.8481 16:68.3454 17:85.9748 18:32.0637 19:47.8037 20:103.376 21:19.3027 22:103.376 23:19.3027 24:34.5401 25:45.8224 26:34.7993 27:30.8189 28:49.8247 29:44.4757 30:49.8039 31:54.0527 32:67.4232 33:35.4999 34:62.3824 35:17.4798 36:120.007 37:35.2176 38:129.472 39:26.9753 40:22.6199 41:73.0907 42:19.0787 43:96.8182 44:54.8162 45:93.5763 46:89.0024 47:58.1229 48:17.6026 49:20.7061 
-0.1389676480834629 0 0 0 0 0 0 0:93.5809 1:49.9149 2:129.316 3:30.7364 4:106.869 5:41.8383 6:1.57062 7:163.664 8:28.664 9:54.7276 10:17.8503 11:97.4959 12:17.8503 13:97.4959 14:42.6209 15:91.2573 16:62.925 17:92.4358 18:33.4139 19:46.1344 20:111.359 21:18.0446 22:111.359 23:18.0446 24:38.264 25:54.8025 26:16.8087 27:19.4766 28:48.0656 29:47.0772 30:54.4315 31:57.9213 32:60.1222 33:39.3948 34:82.3493 35:4.23406 36:140.229 37:21.5679 38:136.878 39:19.9737 40:22.1663 41:40.9717 42:14.9195 43:131.574 44:0.945389 45:178.176 46:151.679 47:16.0421 48:7.36322 49:3.49096 
-1 0.0470907221455065 0.03227810860545963 0.2113601986274833 0.01704292061070675 0.5164820004739451 0.05467372031740242 0:100.93 1:50.2062 2:123.675 3:35.8977 4:105.611 5:39.4176 6:1.94485 7:168.366 8:31.7289 9:52.2546 10:27.4076 11:116.565 12:27.4076 13:116.565 14:41.1336 15:95.6868 16:59.4524 17:96.5463 18:29.3141 19:45.5509 20:108.435 21:15.2551 22:108.435 23:15.2551 24:40.3645 25:53.6732 26:24.7751 27:18.6767 28:47.6307 29:41.3331 30:53.7794 31:59.2339 32:64.5649 33:36.3787 34:58.6587 35:9.64248 36:112.286 37:22.3996 38:153.558 39:12.6903 40:4.34993 41:10.6514 42:2.31057 43:170.054 44:6.50101 45:169.824 46:156.153 47:15.7355 48:3.30749 49:2.1361 
-0.6921602955368691 0.6978181285804559 0.3020815878066668 0.4366550747910977 0.1804518528322893 0.2968267626336709 0 0:112.365 1:44.4825 2:112.861 3:43.566 4:101.252 5:40.5801 6:3.78265 7:167.471 8:37.3039 9:38.6598 10:34.8245 11:116.565 12:34.8245 13:116.565 14:37.6612 15:95.5772 16:64.2397 17:92.2546 18:32.7096 19:47.4079 20:119.096 21:17.1584 22:119.096 23:17.1584 24:34.6409 25:54.6052 26:24.7751 27:22.7144 28:53.3145 29:47.5785 30:48.0305 31:53.8017 32:62.7808 33:40.9325 34:65.3764 35:10.5873 36:112.286 37:29.6872 38:144.98 39:18.7999 40:15.722 41:81.3359 42:16.9719 43:91.828 44:55.7389 45:94.9697 46:87.2361 47:62.6501 48:17.8393 49:18.8636 
-0.3999441260857897 0.04649274362375762 0.06436965415521762 0.1274365652669957 0.03667961454921052 0.0762869717554559 0 0:101.768 1:51.6325 2:117.646 3:40.0303 4:108.405 5:36.0939 6:6.39547 7:148.12 8:38.576 9:50.9458 10:24.2277 11:127.875 12:24.2277 13:127.875 14:36.0451 15:97.4339 16:63.829 17:95.3643 18:25.761 19:41.2822 20:109.812 21:17.1811 22:109.812 23:17.1811 24:44.2838 25:40.6525 26:35.054 27:20.8024 28:49.728 29:33.147 30:62.7447 31:55.4179 32:56.4038 33:50.556 34:30.9638 35:5.90614 36:150.035 37:11.6307 38:158.839 39:6.28249 40:2.09207 41:1.32452 42:3.17983 43:172.185 44:11.3099 45:163.072 46:162.646 47:10.1247 48:21.5953 49:15.0944 
-0.1546075397588399 0 0.01200563802852182 0 0.003137719936484772 0 0 0:92.7867 1:48.7483 2:129.659 3:29.5932 4:109.957 5:38.4132 6:1.23364 7:174.181 8:26.3637 9:47.5125 10:41.3086 11:95.9061 12:41.3086 13:95.9061 14:48.7305 15:86.4036 16:59.8549 17:95.1173 18:31.7875 19:47.8665 20:103.913 21:18.058 22:103.913 23:18.058 24:47.9357 25:46.2492 26:28.54 27:20.4052 28:45.7409 29:48.3967 30:50.252 31:62.6992 32:62.9148 33:31.246 34:51.6592 35:10.8117 36:104.97 37:21.6544 38:115.156 39:31.8885 40:34.0971 41:48.3845 42:21.1304 43:119.034 44:23.2789 45:137.936 46:127.875 47:31.8274 48:31.2392 49:18.8032 
-0 0.02079027859236847 0.04798196540603916 0 0.02980426407920444 0.2264388006807689 0 0:103.325 1:47.237 2:123.635 3:35.1259 4:102.193 5:42.3912 6:2.99217 7:161.375 8:33.8392 9:50.068 10:21.4477 11:126.027 12:21.4477 13:126.027 14:36.5909 15:97.5144 16:58.1024 17:98.7753 18:29.5132 19:43.4122 20:110.425 21:15.9673 22:110.425 23:15.9673 24:37.3596 25:52.2369 26:25.2777 27:21.458 28:46.6679 29:38.6643 30:57.3843 31:59.9216 32:56.6684 33:44.5701 34:41.2524 35:4.28816 36:132.38 37:11.5922 38:162.708 39:7.58959 40:0.818455 41:1.34262 42:0.501953 43:178.287 44:9.75636 45:163.94 46:175.135 47:2.98664 48:8.894 49:5.06051 
-0 0 0 0 0 0.252028690155602 0 0:104.83 1:44.2762 2:116.384 3:38.5063 4:105.675 5:39.995 6:3.17983 7:157.166 8:29.9315 9:54.8061 10:26.5651 11:90 12:26.5651 13:90 14:44.053 15:93.3665 16:56.6167 17:99.516 18:30.75 19:42.6627 20:103.221 21:17.3892 22:103.221 23:17.3892 24:33.1113 25:57.6526 26:16.0112 27:19.0626 28:53.503 29:43.2517 30:55.9611 31:56.2225 32:65.8925 33:39.327 34:80.9605 35:12.94 36:78.9803 37:26.3258 38:147.061 39:16.5094 40:11.6048 41:28.8213 42:7.20388 43:150.161 44:18.367 45:147.331 46:134.379 47:28.393 48:13.7995 49:8.00192 
-1 0 0.1342246714664682 0.60192101520371 0.07888708742742356 0.1906349148070365 0.05967554084473603 0:106.876 1:44.8395 2:110.925 3:41.8202 4:107.329 5:36.2206 6:2.95078 7:169.032 8:31.9193 9:44.5103 10:45 11:90 12:45 13:90 14:43.7679 15:92.1034 16:61.6543 17:95.2624 18:29.9477 19:42.4953 20:102.995 21:18.6129 22:102.995 23:18.6129 24:36.0274 25:41.6335 26:34.0321 27:27.2417 28:52.9638 29:38.0778 30:59.7036 31:50.6405 32:65.6276 33:44.6852 34:69.0755 35:15.8821 36:106.361 37:27.4315 38:144.335 39:15.1475 40:15.2551 41:22.249 42:10.396 43:145.807 44:31.293 45:128.884 46:123.69 47:33.1113 48:16.5044 49:11.8887 
-1 0.6817713686808903 0.8977186956472658 0.8768999701895914 0.4797480102377862 1 0.3069913817864422 0:128.821 1:27.6874 2:105.21 3:43.076 4:90.755 5:49.1304 6:13.6584 7:91.273 8:21.5556 9:66.5376 10:45.7538 11:28.3008 12:45.7538 13:28.3008 14:47.3787 15:103.2 16:43.8135 17:108.366 18:37.0053 19:33.3266 20:86.9483 21:19.1803 22:86.9483 23:19.1803 24:26.2916 25:48.863 26:22.2268 27:33.7619 28:67.8594 29:49.8991 30:46.0523 31:41.6526 32:81.3405 33:32.8964 34:100.095 35:22.4794 36:65.2711 37:52.2767 38:118.06 39:31.4296 40:32.8318 41:61.1134 42:23.8319 43:107.354 44:21.5587 45:98.8204 46:125.621 47:26.0549 48:74.507 49:19.9071 
-0.1612697831106045 0 0 0 0 0 0 0:104.3 1:47.3373 2:120.964 3:37.9987 4:99.3818 5:44.3689 6:3.84245 7:162.121 8:39.1966 9:47.6446 10:25.3462 11:120.964 12:25.3462 13:120.964 14:35.8861 15:94.8821 16:61.4369 17:95.1891 18:29.293 19:47.1832 20:103.707 21:17.5203 22:103.707 23:17.5203 24:38.2656 25:46.4751 26:26.0124 27:20.9291 28:47.7848 29:40.9174 30:54.7067 31:59.226 32:64.1042 33:37.9148 34:61.1134 35:8.11433 36:128.541 37:20.1489 38:145.339 39:15.8732 40:14.2135 41:29.1603 42:9.27149 43:145.72 44:14.069 45:159.87 46:137.361 47:29.2593 48:2.23763 49:1.61438 
-0.1081431308491585 0.117438867979222 0.1683860638464766 0.02574080844132096 0.09786251134777113 0 0.01122428156548991 0:78.1113 1:64.6538 2:141.12 3:26.1499 4:112.356 5:40.5675 6:5.46473 7:145.633 8:33.8774 9:53.2688 10:17.7232 11:139.268 12:17.7232 13:139.268 14:38.4778 15:93.8537 16:62.5924 17:93.1798 18:31.9206 19:42.89 20:115.881 21:17.5713 22:115.881 23:17.5713 24:49.209 25:57.8288 26:16.5044 27:11.8887 28:55.9968 29:41.6047 30:54.6458 31:51.3166 32:65.4014 33:42.4879 34:79.0609 35:4.70461 36:137.337 37:22.0564 38:146.725 39:14.3646 40:15.1368 41:22.5368 42:8.47688 43:153.8 44:10.0607 45:159.55 46:162.784 47:9.18884 48:2.03633 49:0.700831 
-1 0 0.0659628207358352 0.2482712447986513 0.04189362012168629 1 0 0:106.356 1:41.896 2:117.491 3:36.3372 4:103.538 5:41.3523 6:6.4133 7:141.911 8:26.2013 9:49.4594 10:34.5923 11:75.9638 12:34.5923 13:75.9638 14:49.3894 15:86.4347 16:58.4039 17:95.6768 18:34.7608 19:45.5986 20:119.43 21:15.2989 22:119.43 23:15.2989 24:32.6609 25:52.7652 26:20.3764 27:26.131 28:53.8515 29:47.2037 30:49.9697 31:51.3402 32:75.0039 33:42.0725 34:102.875 35:15.6206 36:98.8297 37:36.5387 38:136.859 39:22.4105 40:22.8141 41:59.4208 42:17.1857 43:112.62 44:24.8483 45:119.16 46:119.745 47:33.6901 48:32.8308 49:18.1161 
-1 0 0 0 0 1 0 0:108.678 1:41.1692 2:115.666 3:38.6042 4:104.84 5:40.7797 6:6.21058 7:134.83 8:24.6051 9:56.0409 10:34.3803 11:65.2249 12:34.3803 13:65.2249 14:45.6577 15:95.0226 16:53.7963 17:101.433 18:31.9219 19:42.1233 20:104.471 21:16.9884 22:104.471 23:16.9884 24:34.74 25:49.4672 26:24.7751 27:27.3499 28:55.2854 29:43.6295 30:56.3099 31:50.1944 32:71.8259 33:38.1572 34:93.4621 35:19.1433 36:77.9052 37:43.8542 38:136.055 39:20.9743 40:15.9843 41:45.6945 42:11.7839 43:127.659 44:27.4234 45:116.98 46:132.117 47:26.8825 48:35.1501 49:16.0787 
-0.2568070480336285 0.2459196438507646 0.3451552334493039 0.2473853291443313 0.2019654412028289 0.7676435346140871 0.3438637110072432 0:90 1:56.3099 2:128.451 3:31.9792 4:107.889 5:38.3087 6:1.26182 7:174.71 8:34.9216 9:45.2513 10:34.3803 11:106.526 12:34.3803 13:106.526 14:38.0756 15:95.6957 16:61.564 17:93.9373 18:31.1232 19:44.9145 20:115.821 21:16.6056 22:115.821 23:16.6056 24:35.1959 25:54.0193 26:24.6916 27:24.9439 28:50.1586 29:46.0214 30:51.2825 31:61.5723 32:57.6778 33:43.3683 34:41.7845 35:4.79203 36:137.406 37:20.9987 38:166.562 39:6.18862 40:5.43081 41:12.0948 42:4.80795 43:161.565 44:18.0257 45:151.374 46:179.204 47:0.500387 48:12.2423 49:7.91188 
-0.2708581623657798 0 0 0 0 0 0 0:92.8744 1:51.7814 2:127.286 3:31.7512 4:111.801 5:35.5377 6:1.4062 7:172.535 8:29.4449 9:54.298 10:37.6353 11:105.709 12:37.6353 13:105.709 14:49.1739 15:82.1824 16:63.8989 17:92.4244 18:28.8211 19:49.3087 20:106.837 21:16.7655 22:106.837 23:16.7655 24:40.9555 25:45.3131 26:35.054 27:20.8024 28:46.3393 29:44.3712 30:52.9602 31:58.4272 32:68.5454 33:33.5874 34:40.7321 35:8.47688 36:143.489 37:21.1155 38:113.199 39:31.3287 40:30.9638 41:40.6013 42:16.1907 43:136.352 44:18.6082 45:146.211 46:125.59 47:30.9881 48:13.8627 49:9.05819 
-0 0.02063253740122718 0.015249341222471 0 0.009205045420563824 0 0.2428527458756434 0:95.0762 1:56.1146 2:125.896 3:36.2592 4:108.047 5:39.7223 6:6.13081 7:147.858 8:37.1117 9:50.3524 10:20.7723 11:130.815 12:20.7723 13:130.815 14:35.9205 15:92.9839 16:66.8332 17:92.1081 18:25.8578 19:45.3359 20:110.017 21:16.4892 22:110.017 23:16.4892 24:42.594 25:43.0585 26:28.5514 27:23.3598 28:44.2635 29:39.3588 30:53.824 31:62.5571 32:53.9539 33:36.7674 34:17.0205 35:3.07471 36:152.241 37:14.366 38:146.218 39:16.2891 40:1.21151 41:3.31094 42:2.01525 43:171.483 44:32.0619 45:141.242 46:175.601 47:3.36646 48:12.731 49:14.0269 
-0.04077356174092646 0.1425705696156704 0.279582500824421 0 0.1603443381366003 0.006223025092807221 0 0:87.4214 1:51.5051 2:127.762 3:29.2488 4:115.818 5:34.1152 6:1.18731 7:175.236 8:27.8104 9:41.1121 10:37.1847 11:100.305 12:37.1847 13:100.305 14:49.2758 15:86.5829 16:61.6788 17:92.4915 18:34.3186 19:44.7092 20:96.9152 21:22.7541 22:96.9152 23:22.7541 24:53.3257 25:35.0494 26:28.9024 27:20.1421 28:52.0271 29:52.7775 30:47.7263 31:57.5288 32:60.9603 33:28.9225 34:86.4513 35:9.59622 36:135.789 37:22.8638 38:129.774 39:26.9284 40:25.8333 41:58.346 42:20.7571 43:113.799 44:26.1719 45:127.944 46:116.471 47:35.8963 48:33.0239 49:18.8861 
-0.1863635305949236 0 0.1676648898253047 0.1217926485752707 0.08779163413977238 0.08491455584429603 0.5578048686216425 0:109.134 1:43.8542 2:112.38 3:42.8389 4:110.01 5:36.3322 6:5.55873 7:151.821 8:34.0346 9:54.0754 10:29.9987 11:119.745 12:29.9987 13:119.745 14:44.8718 15:84.1114 16:68.8103 17:88.0111 18:29.7322 19:48.2767 20:116.134 21:17.1913 22:116.134 23:17.1913 24:44.322 25:36.8288 26:41.8202 27:22.5206 28:48.6039 29:42.9727 30:52.8858 31:53.9726 32:69.3107 33:40.2123 34:49.1849 35:10.2359 36:149.876 37:18.4349 38:124.071 39:26.7652 40:23.8338 41:47.2197 42:15.8025 43:128.66 44:44.7838 45:114.444 46:102.179 47:53.4613 48:11.2514 49:9.93368 
-0 0 0 0 0 0 0.845794431067421 0:105.068 1:47.2207 2:116.825 3:40.6105 4:104.184 5:40.1172 6:4.16898 7:164.595 8:38.0907 9:45.1481 10:37.4386 11:111.701 12:37.4386 13:111.701 14:38.5292 15:89.6472 16:67.6455 17:90.1435 18:25.7624 19:43.7382 20:103.243 21:17.0412 22:103.243 23:17.0412 24:37.875 25:49.3987 26:31.4296 27:22.1663 28:46.7103 29:39.7762 30:53.7812 31:55.9391 32:60.3581 33:33.2749 34:41.7019 35:10.8826 36:139.399 37:24.0755 38:129.611 39:25.6719 40:21.1613 41:54.1623 42:16.4704 43:115.887 44:47.6425 45:115.887 46:98.3057 47:60.3453 48:7.36322 49:6.83028 
-1 0 0 0 0 0 0 0:98.0894 1:50.0517 2:122.841 3:35.8572 4:107.328 5:39.9808 6:2.07333 7:168.435 8:29.6679 9:48.7671 10:29.782 11:95.4119 12:29.782 13:95.4119 14:41.6891 15:93.3468 16:61.1283 17:96.8959 18:28.3233 19:44.4224 20:111.268 21:16.7978 22:111.268 23:16.7978 24:34.74 25:49.4672 26:22.2957 27:27.7839 28:48.2181 29:44.1769 30:55.7625 31:58.861 32:57.4821 33:40.4583 34:68.3556 35:6.54334 36:114.341 37:18.5378 38:141.686 39:18.2809 40:12.6136 41:30.6507 42:8.32024 43:147.907 44:7.51214 45:167.358 46:143.13 47:22.4491 48:9.88525 49:6.82613 
-0.9564556085414065 0 0 0 0 0 0.4582078645095039 0:76.2137 1:70.3798 2:131.33 3:34.4117 4:122.818 5:33.3995 6:5.8505 7:155.225 8:35.4883 9:49.2183 10:31.9544 11:119.745 12:31.9544 13:119.745 14:44.509 15:83.2372 16:63.6866 17:90.8518 18:31.3075 19:45.8637 20:105.453 21:18.3561 22:105.453 23:18.3561 24:50.0721 25:38.0602 26:34.9089 27:17.7515 28:48.9642 29:48.3286 30:50.4982 31:59.449 32:70.6799 33:35.0872 34:30.3236 35:2.53212 36:150.568 37:11.7192 38:140.755 39:18.4845 40:12.6804 41:22.7144 42:5.84283 43:160.811 44:9.99804 45:165.727 46:162.979 47:11.4212 48:1.65407 49:1.04373 
-1 0 0 0.1154461908234751 0 1 0 0:116.779 1:35.2324 2:111.93 3:38.7325 4:94.2215 5:45.9421 6:10.0894 7:116.412 8:26.9807 9:55.4828 10:37.9422 11:50.8125 12:37.9422 13:50.8125 14:38.6371 15:105.02 16:50.8694 17:106.182 18:32.6485 19:37.8874 20:95.2265 21:18.3143 22:95.2265 23:18.3143 24:30.5854 25:59.7243 26:18.3199 27:24.7244 28:58.7761 29:41.6267 30:56.5861 31:45.7435 32:68.4448 33:37.5653 34:93.156 35:19.7386 36:73.7775 37:45.9976 38:128.91 39:25.5711 40:26.2935 41:55.8068 42:19.7927 43:111.168 44:25.4457 45:111.399 46:119.197 47:31.2637 48:50.7979 49:17.9362 
-1 0.1698514248974661 0.1332468783416446 0.48623635931577 0.0584842668268631 0.2607525208897331 0.6273538782392525 0:97.6456 1:55.598 2:115.598 3:40.448 4:110.53 5:31.1125 6:6.40638 7:163.568 8:42.6325 9:39.6919 10:57.7244 11:92.3441 12:57.7244 13:92.3441 14:48.5297 15:80.9569 16:64.6736 17:90.0766 18:32.4423 19:51.8273 20:110.92 21:18.7345 22:110.92 23:18.7345 24:34.771 25:46.6211 26:43.6881 27:31.8551 28:44.0412 29:44.74 30:54.8025 31:54.8513 32:63.7498 33:39.7841 34:39.5748 35:16.5258 36:120.964 37:32.4712 38:123.69 39:26.5651 40:17.0726 41:43.6361 42:11.2865 43:131.1 44:58.4684 45:105.173 46:93.221 47:63.7334 48:7.29052 49:9.99503 
-0.2698660731732116 0.05049023027442724 0.06781239579991186 0.1584063300413096 0.03889738409228775 1 0.05171341553727771 0:105.662 1:45.5778 2:120.511 3:36.493 4:98.4865 5:43.2045 6:2.08835 7:167.805 8:33.2526 9:50.0063 10:30.5102 11:89.4213 12:30.5102 13:89.4213 14:36.7328 15:100.204 16:55.471 17:100.327 18:32.079 19:43.191 20:109.031 21:16.4319 22:109.031 23:16.4319 24:34.7778 25:50.6482 26:27.9077 27:30.0101 28:48.1988 29:39.7081 30:56.9308 31:55.1846 32:60.9745 33:44.5121 34:89.8538 35:10.5539 36:110.783 37:28.5184 38:153.435 39:14.0362 40:6.46982 41:26.4354 42:6.41267 43:142.23 44:4.79203 45:171.924 46:155.225 47:16.4495 48:2.90008 49:1.57853 
-1 1 0 1 0 0.2443550692736372 0.9818894953925605 0:112.567 1:40.4144 2:108.465 3:43.5801 4:108.583 5:36.2853 6:1.30492 7:174.898 8:29.08 9:46.1897 10:50.5275 11:86.6335 12:50.5275 13:86.6335 14:46.1431 15:89.3223 16:59.3784 17:97.9072 18:29.9315 19:48.1798 20:99.0029 21:19.44 22:99.0029 23:19.44 24:42.594 25:43.0585 26:39.5597 27:27.6067 28:44.1461 29:43.7664 30:58.1961 31:56.7289 32:59.3608 33:33.674 34:62.1805 35:15.1341 36:120.236 37:32.0054 38:109.126 39:36.4728 40:37.6758 41:67.0914 42:28.6263 43:96.7938 44:39.1494 45:99.0903 46:102.904 47:42.456 48:46.4199 49:28.5031 
-0 0 0 0 0 0 0.2045919402138387 0:90.5032 1:59.5785 2:123.187 3:38.0634 4:113.17 5:35.7925 6:8.18023 7:147.96 8:41.3205 9:48.2201 10:30.75 11:121.675 12:30.75 13:121.675 14:40.5028 15:87.2073 16:70.4959 17:86.7347 18:26.7953 19:44.2649 20:107.346 21:16.8322 22:107.346 23:16.8322 24:40.9144 25:49.0856 26:30.2964 27:22.8337 28:47.8006 29:41.2052 30:52.0908 31:59.6822 32:58.3328 33:35.2324 34:14.6764 35:3.5865 36:154.072 37:16.7182 38:145.491 39:16.2456 40:11.3099 41:21.8014 42:5.83949 43:160.489 44:17.5924 45:158.848 46:160.652 47:15.3128 48:14.25 49:14.4703 
-0.1678749107173785 -0.262922882892718 1 0 0.1015198645433536 0.275102710589698 0.1522701718332558 0:101.4 1:30.4749 2:112.622 3:34.0968 4:119.009 5:36.551 6:25.1587 7:114.726 8:1.80977 9:5.10707 10:100.733 11:44.8134 12:100.733 13:44.8134 14:124.601 15:30.0892 16:35.9546 17:97.6429 18:51.9112 19:22.8045 20:40.5328 21:50.8696 22:40.5328 23:50.8696 24:42.8789 25:26.5651 26:43.4413 27:36.2538 28:92.0128 29:59.9603 30:36.4631 31:33.3029 32:66.3034 33:18.4844 34:57.9028 35:38.7914 36:70.2505 37:71.0783 38:60.5546 39:57.8288 40:95.5895 41:42.2909 42:50.2313 43:101.094 44:19.2127 45:55.1755 46:91.5482 47:24.0265 48:83.5999 49:48.069 
-0 -0 0 0 0.360635465757674 0 1 0:121.416 1:34.3952 2:103.36 3:46.4998 4:103.584 5:38.7822 6:0.319016 7:179.215 8:31.3214 9:33.1763 10:65.9558 11:85.6013 12:65.9558 13:85.6013 14:51.262 15:71.5073 16:77.5018 17:77.5269 18:30.0677 19:61.2107 20:112.551 21:20.1787 22:112.551 23:20.1787 24:38.3749 25:42.8789 26:46.2189 27:29.7449 28:40.1406 29:47.8549 30:52.7324 31:54.7334 32:63.4349 33:33.6901 34:52.0543 35:20.5141 36:128.146 37:35.9483 38:88.5643 39:51.2265 40:41.4965 41:86.2686 42:43.2068 43:75.9125 44:53.9924 45:63.1691 46:67.4727 47:51.6993 48:35.1602 49:42.0747 
-1 -0.5524620468285709 0.2641597383664175 1 0.082057914405018 0.2645179466108494 0.6513548684086575 0:126.708 1:29.9524 2:103.614 3:45.9509 4:96.3692 5:45.6228 6:10.6422 7:134.728 8:22.6672 9:46.4644 10:54.3855 11:64.2534 12:54.3855 13:64.2534 14:56.4333 15:74.2192 16:63.2684 17:86.9745 18:38.0206 19:48.4399 20:101.57 21:22.5345 22:101.57 23:22.5345 24:29.9315 25:37.2348 26:35.9506 27:35.8283 28:50.4174 29:57.6178 30:46.1615 31:49.392 32:74.4716 33:33.0381 34:68.2325 35:22.0297 36:112.101 37:39.7552 38:108.97 39:37.9716 40:34.1597 41:76.6755 42:30.9638 43:90.7957 44:48.8141 45:73.1913 46:90 47:45 48:40.3286 49:32.1148 
-0 -0 1 1 0 0 0 0:118.113 1:24.6608 2:101.31 3:40.7636 4:110.067 5:43.426 6:24.2277 7:120.018 8:6.28249 9:12.6422 10:85.6013 11:51.5198 12:85.6013 13:51.5198 14:117.103 15:37.409 16:39.1019 17:94.1294 18:50.4403 19:22.3287 20:45 21:48.8141 22:45 23:48.8141 24:39.4725 25:23.9625 26:44.6869 27:40.9144 28:83.8156 29:66.1199 30:37.1481 31:37.0388 32:64.1294 33:23.2837 34:67.6686 35:32.6842 36:57.2157 37:64.8769 38:76.6672 39:48.6348 40:83.9483 41:45.7765 42:45.2461 43:102.109 44:23.0508 45:59.4662 46:90.196 47:26.2023 48:82.3008 49:46.4273 
-0 -0 0 0.915270765248859 0 0 0 0:109.578 1:33.6252 2:107.916 3:38.0268 4:106.815 5:40.4311 6:19.2307 7:133.025 8:16.46 9:24.4544 10:85.4462 11:51.1552 12:85.4462 13:51.1552 14:82.1677 15:54.3828 16:56.1672 17:88.6066 18:49.6849 19:42.4254 20:76.569 21:36.8357 22:76.569 23:36.8357 24:43.0355 25:47.2776 26:36.8699 27:40.6013 28:59.4568 29:64.1511 30:46.4144 31:42.6829 32:63.8195 33:29.2914 34:65.9475 35:34.1436 36:83.1572 37:64.359 38:85.9858 39:45.8343 40:66.9385 41:56.6205 42:48.7314 43:90.5846 44:28.4708 45:59.6147 46:90.3597 47:30.5919 48:64.8901 49:47.4925 
-0.2597502946175843 -0.4110420628927505 1 0 0.3171667147960389 0.09241713774721333 0.2427755041312963 0:115.296 1:25.0733 2:103.389 3:36.0387 4:110.746 5:40.9717 6:37.2782 7:108.435 8:6.70984 9:9.23556 10:98.1301 11:49.3987 12:98.1301 13:49.3987 14:130.705 15:22.8973 16:44.2868 17:77.6753 18:65.2249 19:18.1932 20:41.2795 21:68.0873 22:41.2795 23:68.0873 24:50.4252 25:23.6294 26:44.6869 27:40.9144 28:87.8789 29:73.4956 30:25.3197 31:28.5112 32:56.9859 33:19.9589 34:58.4595 35:33.7694 36:72.0177 37:67.4794 38:79.7445 39:49.7427 40:84.782 41:45.4837 42:50.1944 43:99.4623 44:23.5564 45:52.3587 46:84.8702 47:24.8057 48:82.0651 49:48.8311 
-0.3715428451583299 -0.5236115408452816 0.9380429505718172 0.3659381274599133 1 0.5491389826601669 0.3282790947859817 0:129.046 1:22.936 2:100.758 3:36.9683 4:99.9619 5:42.6785 6:32.3474 7:130.352 8:2.11287 9:1.27452 10:97.9207 11:56.1951 12:97.9207 13:56.1951 14:68.7566 15:42.6141 16:89.6669 17:60.8324 18:49.1528 19:77.0054 20:105.306 21:39.5597 22:105.306 23:39.5597 24:64.6538 25:37.2348 26:47.7049 27:42.7259 28:35.4069 29:86.6857 30:41.6335 31:55.4915 32:51.4495 33:26.2114 34:56.5436 35:30.0111 36:98.4333 37:61.2258 38:77.3196 39:56.9761 40:87.2582 41:55.5231 42:74.8477 43:75.4591 44:21.253 45:36.8915 46:66.7662 47:22.7801 48:60.5025 49:67.9169 
-0 -0 1 1 0 0.7155767936532108 0.06070488751254579 0:108.563 1:35.9569 2:108.922 3:39.0127 4:106.409 5:40.4775 6:18.8247 7:133.025 8:17.2815 9:25.7436 10:85.4462 11:51.1552 12:85.4462 13:51.1552 14:78.2922 15:59.1477 16:53.0367 17:95.3558 18:46.2313 19:39.9851 20:79.1405 21:32.6609 22:79.1405 23:32.6609 24:39.211 25:46.9749 26:38.8448 27:43.0251 28:66.9672 29:57.3516 30:44.1575 31:39.5962 32:68.5411 33:32.4045 34:69.2744 35:33.6636 36:80.665 37:64.5265 38:95.8364 39:39.6566 40:59.3529 41:56.5055 42:41.721 43:92.5308 44:30.8628 45:63.7182 46:95.5275 47:31.0455 48:63.8712 49:43.5529 
-0 -0.07818155308603762 0.4324902372418252 0 1 0.4490989380350436 1 0:122.409 1:36.146 2:103.041 3:47.1103 4:99.3121 5:37.4819 6:2.85055 7:173.112 8:38.0888 9:35.2724 10:61.9275 11:88.0908 12:61.9275 13:88.0908 14:44.1505 15:80.3824 16:77.7075 17:80.0683 18:29.4275 19:58.8368 20:119.143 21:18.5047 22:119.143 23:18.5047 24:31.4902 25:49.7636 26:39.9364 27:36.0274 28:42.2737 29:39.8056 30:60.0458 31:51.1155 32:61.1947 33:42.785 34:52.9861 35:26.2409 36:121.353 37:44.4985 38:93.3109 39:45.2377 40:40.3645 41:85.9623 42:43.1524 43:64.9831 44:66.8307 45:53.7567 46:61.8868 47:54.3635 48:28.3008 49:45.7538 
-0.1811328231293764 -0.2191096081987613 0 0 0.3269523648743413 0.1665351102022431 0.1556915450081368 0:116.078 1:27.6054 2:105.286 3:38.1909 4:109.56 5:41.6195 6:22.7869 7:127.659 8:6.28885 9:9.26572 10:86.8202 11:57.4259 12:86.8202 13:57.4259 14:94.7792 15:41.565 16:58.8462 17:77.5741 18:62.0292 19:53.5308 20:77.0293 21:46.7741 22:77.0293 23:46.7741 24:52.0523 25:36.3711 26:39.0939 27:35.8377 28:46.0051 29:86.9495 30:47.3614 31:52.1929 32:64.5217 33:25.3501 34:61.8001 35:33.1542 36:90.5846 37:59.5259 38:67.1063 39:57.4094 40:84.299 41:55.4462 42:61.873 43:83.4027 44:24.0761 45:51.1684 46:80.5008 47:26.8176 48:69.5958 49:53.1744 
-0.3051216269542503 -0.452040520069952 0.5035246287620492 0.2469307021652922 1 0.4585549017433297 1 0:138.7 1:23.7441 2:90.8285 3:51.348 4:93.6227 5:40.9013 6:10.2242 7:163.4 8:26.6249 9:15.8114 10:92.5308 11:58.9432 12:92.5308 13:58.9432 14:49.5352 15:63.135 16:90.3532 17:66.3953 18:31.529 19:75.6944 20:126.386 21:20.2351 22:126.386 23:20.2351 24:39.8056 25:44.4838 26:50.7106 27:50.7106 28:38.8939 29:52.0013 30:48.7803 31:54.6432 32:60.7512 33:37.1467 34:51.3402 35:32.8285 36:109.537 37:57.1715 38:80.8927 39:54.9689 40:60.7086 41:82.5885 42:79.095 43:53.7234 44:40.0698 45:31.3752 46:57.7272 47:33.1906 48:44.3165 49:72.8315 
-0.2576220109172539 -1 0 0.1762211958592694 0 0 1 0:114.001 1:40.8386 2:108.153 3:45.9548 4:106.895 5:37.6726 6:0.936632 7:176.934 8:31.8878 9:42.8825 10:52.7652 11:94.5739 12:52.7652 13:94.5739 14:50.2748 15:79.0933 16:65.0208 17:89.2652 18:31.6075 19:53.1301 20:104.036 21:20.8545 22:104.036 23:20.8545 24:39.992 25:41.6514 26:42.2737 27:24.9439 28:43.5957 29:45.9078 30:52.1178 31:55.4053 32:63.0973 33:34.4789 34:57.8665 35:18.9157 36:114.305 37:33.6901 38:108.881 39:34.1209 40:29.0546 41:68.1986 42:22.0609 43:102.981 44:55.905 45:84.2894 46:86.58 47:53.3132 48:30.2457 49:28.0972 
-0 -0 0 0.08776466897153371 0 0 0 0:118.842 1:33.1785 2:106.076 3:42.7852 4:103.943 5:40.9157 6:9.24942 7:149.194 8:21.8896 9:37.8065 10:64.5546 11:68.0394 12:64.5546 13:68.0394 14:56.0625 15:72.445 16:67.2415 17:85.6034 18:35.9597 19:56.1448 20:110.064 21:22.1598 22:110.064 23:22.1598 24:41.8779 25:38.6598 26:41.2954 27:32.0054 28:46.4646 29:54.2029 30:50.0517 31:51.5655 32:69.8519 33:35.1482 34:70.0627 35:21.4854 36:115.989 37:39.1304 38:95.5231 39:44.3415 40:44.8991 41:74.6167 42:40.581 43:84.5461 44:42.6189 45:74.0438 46:88.354 47:42.7852 48:45 49:36.8699 
-0 -0 1 0 0 0 0 0:116.565 1:24.7751 2:103.861 3:39.6233 4:108.838 5:45.169 6:27.6067 7:109.335 8:3.12881 9:7.74471 10:87.8287 11:50.008 12:87.8287 13:50.008 14:123.754 15:27.172 16:40.6581 17:84.847 18:70.9682 19:25.1966 20:46.5517 21:58.5755 22:46.5517 23:58.5755 24:33.3023 25:32.7352 26:30.0184 27:42.8789 28:70.3462 29:83.8845 30:30.341 31:35.2469 32:62.2345 33:20.9726 34:68.5259 35:36.1547 36:71.0836 37:71.1797 38:75.9744 39:53.9159 40:86.8152 41:48.6745 42:54.3329 43:91.5074 44:18.3078 45:46.8157 46:84.0505 47:26.6585 48:78.2933 49:51.5752 
-0 -0 0 0 0.5924819367017277 0 0 0:125.074 1:23.0233 2:101.762 3:38.1899 4:102.995 5:45 6:25.593 7:127.514 8:4.57664 9:5.66024 10:88.6028 11:55.6698 12:88.6028 13:55.6698 14:92.8938 15:42.6467 16:65.0777 17:71.7844 18:56.0489 19:50.9275 20:74.9315 21:48.5035 22:74.9315 23:48.5035 24:51.2675 25:31.6075 26:42.527 27:42.7094 28:51.7954 29:77.4195 30:44.9679 31:48.1123 32:56.3099 33:25.9423 34:60.5241 35:32.5741 36:88.2997 37:61.1443 38:71.2147 39:55.8348 40:87.897 41:51.1854 42:63.5176 43:83.4604 44:23.2864 45:48.0975 46:78.6242 47:25.6802 48:69.4811 49:55.4426 
-0 -0 0 0.4374629375349465 0 0 0 0:110.659 1:39.8827 2:111.494 3:40.4967 4:108.764 5:37.1756 6:7.78161 7:152.603 8:21.3016 9:38.1358 10:62.8189 11:73.4429 12:62.8189 13:73.4429 14:60.2746 15:73.4833 16:63.1271 17:89.9468 18:36.292 19:53.0278 20:101.486 21:22.6149 22:101.486 23:22.6149 24:41.8779 25:38.6598 26:42.2073 27:29.3578 28:47.6003 29:56.1261 30:52.9006 31:53.0895 32:69.4932 33:32.564 34:72.4844 35:22.835 36:110.278 37:41.8866 38:92.7712 39:45.0591 40:41.9447 41:78.471 42:40.3127 43:79.9607 44:43.7811 45:70.821 46:90 47:42.1844 48:45.8651 49:35.1822 
-1 -0.578269567564574 0.2137324946506159 1 0.04808922309389779 0.8380608395397685 0 0:109.17 1:38.5055 2:110.576 3:39.6187 4:102.605 5:40.9203 6:11.2301 7:149.437 8:26.4194 9:34.7909 10:71.2502 11:59.9729 12:71.2502 13:59.9729 14:62.8189 15:71.3963 16:55.5278 17:95.0916 18:39.8938 19:46.2674 20:90 21:26.5651 22:90 23:26.5651 24:36.0274 25:46.8476 26:38.8448 27:43.0251 28:58.147 29:52.0541 30:48.7325 31:44.1011 32:68.5311 33:34.1696 34:68.8967 35:28.1456 36:90.6427 37:55.5539 38:106.109 39:36.7461 40:45.0881 41:62.631 42:33.8746 43:94.1704 44:36.2331 45:77.4211 46:97.6459 47:36.1312 48:52.0355 49:37.0321 
-0 -0 0 1 0 0 0 0:119.955 1:28.9518 2:99.6237 3:42.3343 4:109.436 5:38.4597 6:17.5924 7:130.236 8:13.3925 9:26.4131 10:80.0494 11:54.2726 12:80.0494 13:54.2726 14:83.4561 15:57.8056 16:49.5967 17:99.1855 18:45.6296 19:39.4007 20:71.7481 21:37.9572 22:71.7481 23:37.9572 24:42.8253 25:32.7843 26:43.0585 27:36.9909 28:64.6342 29:63.1617 30:46.1753 31:44.4154 32:63.2187 33:29.487 34:70.0883 35:28.6265 36:87.674 37:53.0415 38:83.9046 39:46.1612 40:66.573 41:60.3254 42:49.462 43:88.7713 44:31.2248 45:59.6819 46:88.1415 47:30.2197 48:65.4495 49:46.7168 
-0.1037868883323605 -0.1321539915362797 0.1362561878041637 0.2884430894117169 1 0.1804637043956216 0.0668643490387368 0:139.245 1:21.6963 2:92.8936 3:44.8867 4:92.1044 5:41.8753 6:9.74859 7:162.929 8:26.0088 9:17.3389 10:86.6335 11:64.7989 12:86.6335 13:64.7989 14:50.1037 15:64.0237 16:89.2505 17:67.7834 18:32.0377 19:79.034 20:125.253 21:22.6911 22:125.253 23:22.6911 24:41.9872 25:54.353 26:41.9872 27:41.6726 28:36.3191 29:52.587 30:56.9647 31:55.4318 32:56.1077 33:40.8837 34:56.9862 35:36.2031 36:103.77 37:61.5085 38:73.6821 39:54.3714 40:75.4157 41:67.9821 42:75.3481 43:63.8767 44:29.9892 45:35.2933 46:64.5847 47:25.539 48:53.9455 49:68.2615 
-0 -0 0 1 0 0 0 0:121.212 1:26.956 2:101.003 3:41.8227 4:102.929 5:44.3389 6:22.532 7:123.383 8:12.3237 9:22.2021 10:86.2194 11:46.6885 12:86.2194 13:46.6885 14:90.9956 15:51.2704 16:52.4314 17:91.4688 18:50.0047 19:39.6233 20:68.8845 21:39.4456 22:68.8845 23:39.4456 24:37.6588 25:38.1153 26:37.4054 27:49.7636 28:61.8841 29:68.1265 30:45.029 31:42.1952 32:61.2324 33:28.2059 34:67.4275 35:32.7894 36:74.9816 37:67.4794 38:82.5831 39:46.0354 40:71.3975 41:52.9962 42:50.5968 43:90.9662 44:26.773 45:58.8847 46:87.0263 47:28.8974 48:70.5477 49:47.0895 
-0.03732365279471316 -0 0 1 0 0 0 0:123.759 1:30.0957 2:105.371 3:42.5959 4:97.2434 5:44.586 6:11.9014 7:143.886 8:21.7257 9:35.0958 10:64.44 11:68.6294 12:64.44 13:68.6294 14:56.4444 15:75.0625 16:66.9928 17:84.9267 18:34.1683 19:53.5766 20:98.7542 21:23.5966 22:98.7542 23:23.5966 24:29.0546 25:39.8056 26:35.3112 27:41.4483 28:49.5199 29:52.2735 30:50.7959 31:49.0782 32:65.4405 33:31.8337 34:65.4256 35:24.9312 36:103.941 37:49.2485 38:100.847 39:39.031 40:44.1326 41:69.0863 42:37.9587 43:86.8976 44:42.8789 45:70.9065 46:90 47:37.1169 48:46.3719 49:36.4428 
-1 -1 0.03680347287205164 1 0 0.3019168284284337 0 0:105.709 1:44.8377 2:113.499 3:40.4261 4:111.01 5:35.1487 6:3.53229 7:167.005 8:26.2508 9:42.8111 10:50.0921 11:87.3974 12:50.0921 13:87.3974 14:48.2899 15:85.3919 16:62.7158 17:93.3134 18:30.3374 19:49.7246 20:104.945 21:19.6162 22:104.945 23:19.6162 24:37.3039 25:38.6598 26:36.6798 27:29.3578 28:45.8232 29:46.2859 30:57.9798 31:53.8501 32:63.8357 33:35.6343 34:73.0948 35:19.1509 36:114.258 37:37.4879 38:115.507 39:33.6364 40:24.9775 41:76.5302 42:22.7974 43:88.391 44:48.565 45:88.5195 46:98.6632 47:46.3872 48:31.9047 49:23.8559 
-0 -0 0 1 0 0 0 0:121.403 1:29.8317 2:105.107 3:41.4216 4:99.863 5:43.95 6:15.5928 7:137.291 8:18.0343 9:29.0868 10:73.429 11:60.2852 12:73.429 13:60.2852 14:65.6719 15:67.071 16:63.62 17:86.8628 18:39.9683 19:53.087 20:94.1223 21:27.3699 22:94.1223 23:27.3699 24:32.0054 25:39.8056 26:36.4041 27:45.7957 28:50.973 29:57.5558 30:49.643 31:46.3343 32:65.7228 33:31.3813 34:64.6292 35:28.1333 36:94.3987 37:56.1254 38:89.1178 39:43.8005 40:55.5142 41:65.6166 42:45.4364 43:87.7119 44:36.3993 45:63.9927 46:86.8779 47:34.8457 48:55.5263 49:42.2453 
-0 -0.1994534890489036 0 0 0 0 0 0:122.128 1:29.3878 2:103.978 3:39.2913 4:105.448 5:37.7698 6:17.8977 7:146.232 8:10.5481 9:10.008 10:90 11:62.2415 12:90 13:62.2415 14:70.0099 15:57.3177 16:72.8973 17:78.0558 18:43.3683 19:58.4847 20:95.6694 21:35.3294 22:95.6694 23:35.3294 24:52.6961 25:30.9638 26:54.4623 27:35.5377 28:49.4608 29:63.5859 30:44.3948 31:46.6246 32:58.2405 33:29.0332 34:64.6152 35:27.5408 36:101.952 37:53.0632 38:92.2486 39:45.2886 40:62.8577 41:66.4087 42:57.9119 43:79.5547 44:32.4347 45:46.5975 46:78.4133 47:30.75 48:59.7449 49:53.8477 
-0.4946297306989699 -0.7882732050046606 1 0.1935467620055871 0.7386654555340999 1 0.4611938793538005 0:113.07 1:24.5901 2:102.216 3:39.9026 4:109.047 5:45.6903 6:35.1216 7:101.699 8:0.545658 9:1.30195 10:103.431 11:39.5962 12:103.431 13:39.5962 14:153.176 15:14.0699 16:29.6939 17:91.9368 18:49.728 19:18.6767 20:27.2195 21:50.0517 22:27.2195 23:50.0517 24:33.7631 25:36.2538 26:31.9688 27:50.9061 28:95.7928 29:60.2104 30:30.0184 31:29.343 32:50.856 33:17.1896 34:61.7288 35:36.7072 36:55.0393 37:80.651 38:69.6177 39:52.4744 40:92.7658 41:40.5427 42:48.3696 43:101.724 44:18.2899 45:58.0998 46:91.6211 47:23.7124 48:86.6263 49:49.8803 
-1 -1 0.4529538746530694 1 0.2240890474977468 0.5464760809562407 1 0:111.626 1:41.3545 2:109.879 3:43.1221 4:106.38 5:37.9397 6:0.753848 7:177.51 8:32.8687 9:41.1859 10:45 11:101.31 12:45 13:101.31 14:45.2852 15:84.7867 16:63.7743 17:92.1359 18:30.4874 19:49.6498 20:104.143 21:19.9072 22:104.143 23:19.9072 24:37.9115 25:39.0939 26:38.2338 27:25.2011 28:46.1061 29:45.2955 30:54.6821 31:54.3301 32:64.6267 33:36.2471 34:58.6713 35:14.9729 36:130.571 37:26.7493 38:119.411 39:30.3419 40:22.7144 41:60.9454 42:18.3173 43:110.4 44:54.9978 45:95.304 46:95.1051 47:53.1565 48:20.8935 49:19.2408 
-0 -0.1377370409825257 0 0 0 0 0.01175269680394929 0:113.06 1:33.6213 2:109.216 3:38.7085 4:109.967 5:38.3625 6:13.3308 7:142.24 8:14.4262 9:25.1878 10:78.6901 11:61.5044 12:78.6901 13:61.5044 14:81.4021 15:55.8971 16:57.9052 17:90.2715 18:45.1949 19:51.3797 20:85.9483 21:32.3097 22:85.9483 23:32.3097 24:48.7517 25:35.5377 26:45 27:33.6901 28:50.5498 29:69.005 30:50.5095 31:50.2653 32:68.1986 33:27.7585 34:69.1455 35:28.9264 36:95.3009 37:52.6605 38:76.8645 39:52.7077 40:63.7751 41:66.1613 42:53.9726 43:81.0274 44:31.2319 45:59.7732 46:87.1808 47:33.0359 48:60.8178 49:44.9317 
-0 -0 0 0 0 0 0.2531042217436157 0:133.717 1:23.6469 2:96.3402 3:46.7899 4:99.0851 5:43.9572 6:14.0362 7:135 8:16.8214 9:35.61 10:71.8781 11:59.0362 12:71.8781 13:59.0362 14:63.3652 15:62.3436 16:70.9592 17:78.2953 18:40.2292 19:53.1978 20:98.8759 21:29.4956 22:98.8759 23:29.4956 24:35.7274 25:31.752 26:43.0585 27:36.9909 28:49.6727 29:60.6017 30:44.764 31:49.3519 32:67.0753 33:31.4666 34:64.5583 35:28.7756 36:107.921 37:46.9415 38:91.6814 39:48.4117 40:48.999 41:80.4849 42:47.0663 43:78.343 44:41.9362 45:51.7309 46:81.3087 47:34.5218 48:51.5396 49:49.4659 
-0.05432795062595895 -0.08766493405844854 0.1271297760893189 0 0 0 0.04638340796201469 0:127.942 1:21.8014 2:95.6571 3:43.4234 4:99.5309 5:48.6498 6:29.139 7:112.223 8:7.73094 9:15.3018 10:84.6743 11:51.163 12:84.6743 13:51.163 14:104.776 15:40.1483 16:50.4055 17:79.4234 18:59.1232 19:27.926 20:49.3498 21:54.8437 22:49.3498 23:54.8437 24:35.0905 25:35.2292 26:30.9022 27:38.3887 28:73.6698 29:74.9097 30:25.9932 31:31.0576 32:52.3596 33:17.3216 34:57.0574 35:31.1025 36:76.8292 37:62.689 38:82.875 39:50.5485 40:74.7449 41:54.5445 42:49.6355 43:95.7106 44:27.8357 45:56.4271 46:82.6736 47:27.3211 48:78.6769 49:51.94 
-0 -0 0 0.2223135005704625 0 0 0 0:117.624 1:27.2883 2:101.672 3:39.6977 4:107.427 5:41.8264 6:25.6557 7:113.875 8:7.62107 9:16.72 10:84.992 11:49.1081 12:84.992 13:49.1081 14:101.585 15:42.2947 16:51.1155 17:88.1524 18:53.8204 19:38.7434 20:64.4171 21:44.3581 22:64.4171 23:44.3581 24:37.0469 25:31.4902 26:36.0274 27:41.6335 28:65.6955 29:68.8387 30:42.5725 31:38.2558 32:69.8516 33:25.7638 34:72.1497 35:32.1148 36:79.6952 37:60.0685 38:76.7389 39:51.9717 40:81.725 41:52.1182 42:57.3516 43:88.7994 44:21.8753 45:52.5089 46:86.3138 47:27.8272 48:74.0318 49:49.9487 
-0 -0 1 0 0 0 0 0:114.803 1:25.3021 2:105.558 3:35.1318 4:105.213 5:44.8279 6:33.8412 7:112.751 8:0.584631 9:0.795724 10:95.3767 11:49.0856 12:95.3767 13:49.0856 14:115.665 15:31.4296 16:54.0665 17:78.0849 18:55.8403 19:34.1597 20:50.6641 21:53.7192 22:50.6641 23:53.7192 24:48.9452 25:39.2072 26:35.0082 27:41.4438 28:68.5523 29:74.0546 30:40.3009 31:43.6724 32:48.785 33:20.9743 34:59.5019 35:33.2737 36:66.5683 37:69.9996 38:70.6716 39:53.208 40:91.8395 41:43.6612 42:55.4763 43:95.604 44:21.2474 45:55.6558 46:82.1083 47:25.9001 48:76.763 49:53.4841 
-0 -0 0 0.4222522817467359 0 0 0 0:126.027 1:26.8279 2:100.305 3:44.5692 4:107.103 5:40.1978 6:12.2157 7:146.17 8:14.3493 9:26.5651 10:81.8699 11:60.2551 12:81.8699 13:60.2551 14:76.2658 15:57.4746 16:60.5241 17:86.2686 18:43.0808 19:56.9908 20:93.149 21:32.3419 22:93.149 23:32.3419 24:42.2073 25:29.3578 26:52.4314 27:37.5686 28:48.1798 29:67.1663 30:46.6399 31:49.9377 32:67.1151 33:29.3706 34:65.5721 35:25.137 36:91.5253 37:50.5632 38:82.8032 39:49.2549 40:60.7371 41:67.6972 42:49.6035 43:85.3276 44:33.7083 45:61.6144 46:89.2211 47:34.1482 48:60.3065 49:43.2053 
-0 -0 0.4788032298343349 1 0 0 0 0:126.799 1:24.1016 2:100.658 3:43.0413 4:106.007 5:43.3233 6:16.5714 7:132.649 8:9.96443 9:22.2404 10:80.72 11:57.6258 12:80.72 13:57.6258 14:99.6128 15:48.1576 16:49.0585 17:89.2883 18:56.2667 19:37.1987 20:63.7972 21:45.6319 22:63.7972 23:45.6319 24:41.0548 25:26.7788 26:44.2043 27:36.2026 28:64.2365 29:71.6908 30:40.548 31:45.1516 32:63.6699 33:25.3045 34:65.3347 35:32.0671 36:72.5973 37:61.9719 38:78.9979 39:49.3851 40:72.8628 41:55.4134 42:48.2809 43:92.7591 44:28.0018 45:58.0588 46:89.8767 47:28.5563 48:73.6812 49:44.7799 
-0 -0 0 0 1 0 0 0:137.051 1:23.3256 2:95.9236 3:47.5965 4:94.0542 5:43.875 6:9.51511 7:160.808 8:23.4562 9:21.6467 10:83.2902 11:64.7989 12:83.2902 13:64.7989 14:54.6558 15:63.913 16:81.6561 17:72.951 18:34.6746 19:72.3759 20:119.965 21:22.8117 22:119.965 23:22.8117 24:37.0793 25:47.7263 26:41.9872 27:48.0128 28:38.2544 29:55.9305 30:55.3048 31:54.7667 32:61.2525 33:38.1429 34:56.281 35:32.8414 36:102.933 37:60.5416 38:75.2099 39:53.9764 40:70.8616 41:68.0334 42:71.2587 43:65.2357 44:34.3354 45:43.4759 46:71.9442 47:31.1556 48:51.299 49:60.9141 
-0.237449239369765 -0.4488289003599562 0.2716888011925205 0.1028883411586764 0.5118867057280429 0.2241096890938297 0.1306335963637704 0:130.145 1:28.4455 2:98.0344 3:47.0644 4:97.5537 5:40.1079 6:3.91592 7:171.895 8:30.3506 9:26.3594 10:71.131 11:78.8994 12:71.131 13:78.8994 14:48.6153 15:70.5814 16:79.5692 17:78.1901 18:32.6609 19:68.1986 20:122.005 21:20.556 22:122.005 23:20.556 24:30.3432 25:50.1944 26:35.484 27:41.9872 28:40.9495 29:49.9024 30:55.4834 31:54.086 32:61.3471 33:40.3392 34:54.861 35:30.76 36:112.038 37:53.5218 38:80.6933 39:51.8791 40:54.516 41:82.6656 42:61.5317 43:63.2103 44:46.4873 45:44.3914 46:67.0113 47:36.6157 48:42.6109 49:60.9118 
-0.1694667753217798 -0.3026841084590557 1 1 0.08591067844888141 0.756555805084133 0.1839106907687589 0:127.043 1:22.3062 2:94.6561 3:45.0739 4:103.723 5:47.5073 6:26.8612 7:100.079 8:7.71649 9:24.706 10:86.5467 11:39.8461 12:86.5467 13:39.8461 14:112.349 15:40.0207 16:41.4474 17:97.8075 18:49.2364 19:29.0742 20:50.2259 21:39.454 22:50.2259 23:39.454 24:32.0926 25:30.7263 26:33.0596 27:45.1305 28:77.4712 29:64.29 30:35.0494 31:36.1507 32:67.556 33:23.7141 34:76.659 35:33.1367 36:68.1501 37:62.9494 38:86.5873 39:46.2075 40:67.883 41:55.2169 42:44.0843 43:98.5149 44:24.7153 45:55.8955 46:88.6307 47:28.79 48:78.3708 49:46.1296 
-0 -0 0 1 0 0 0 0:124.821 1:28.5473 2:101.44 3:42.9285 4:100.472 5:41.9009 6:14.3814 7:137.726 8:18.8861 9:33.5453 10:70.6593 11:62.9814 12:70.6593 13:62.9814 14:68.8937 15:64.6227 16:59.5143 17:88.7295 18:45.0598 19:51.1295 20:88.4599 21:34.1622 22:88.4599 23:34.1622 24:34.6952 25:36.8699 26:38.491 27:36.2538 28:54.1934 29:68.0731 30:43.4418 31:47.1321 32:66.2043 33:28.7536 34:64.4289 35:25.4663 36:97.2774 37:51.0803 38:92.5622 39:45.1048 40:49.3809 41:71.3488 42:44.7454 43:86.9335 44:39.3485 45:62.7764 46:90.2969 47:32.6678 48:58.3972 49:44.2118 
-0 -0 0.08955630324216483 0 0 0 0.736383748166642 0:111.829 1:40.4834 2:110.325 3:41.2227 4:109.813 5:34.5165 6:2.1081 7:174.382 8:25.9249 9:33.1113 10:65.3441 11:84.3824 12:65.3441 13:84.3824 14:54.1742 15:73.2792 16:74.5388 17:80.9335 18:31.215 19:59.608 20:110.637 21:20.4761 22:110.637 23:20.4761 24:39.0939 25:35.8377 26:49.3987 27:31.3287 28:36.2524 29:53.2028 30:57.4985 31:60.3647 32:59.5002 33:34.8085 34:65.7723 35:21.7227 36:126.085 37:37.1042 38:88.9708 39:47.5051 40:43.6678 41:81.8699 42:46.7899 43:73.1416 44:47.4896 45:60.9454 46:75.2947 47:46.8735 48:40.9185 49:41.4381 
-0.05654724484940604 -0.07479574664320424 1 0.289803099240843 0 0.3876521581800493 0.04144640609830789 0:113.07 1:24.5901 2:100.105 3:41.7905 4:111.93 5:45.0248 6:32.4054 7:95.4252 8:2.48955 9:8.1301 10:99.211 11:38.7246 12:99.211 13:38.7246 14:136.081 15:21.9647 16:32.9052 17:93.1221 18:60.9787 19:21.2211 20:36.8183 21:46.322 22:36.8183 23:46.322 24:30.3791 25:31.7236 26:33.1735 27:48.9348 28:82.6845 29:74.1569 30:26.9848 31:30.1443 32:73.0631 33:19.9992 34:75.6732 35:36.624 36:63.6616 37:73.1625 38:82.7832 39:50.3334 40:79.1817 41:47.9536 42:49.2346 43:96.5992 44:17.7955 45:48.3321 46:91.6652 47:25.463 48:83.9634 49:48.5331 
-0.2272149789739252 -0.4083354737299331 1 1 0.1938419362256986 1 0.2533427052385297 0:105.555 1:35.1033 2:108.377 3:38.3616 4:110.768 5:38.9626 6:23.3607 7:123.762 8:11.9395 9:20.5071 10:89.5304 11:47.0671 12:89.5304 13:47.0671 14:96.7599 15:50.0955 16:43.8547 17:102.622 18:46.8476 19:30.8133 20:58.7946 21:36.1345 22:58.7946 23:36.1345 24:40.3395 25:40.9144 26:37.4054 27:45 28:79.8753 29:57.2648 30:41.4977 31:35.1983 32:69.0343 33:25.7737 34:69.4692 35:35.7729 36:63.4349 37:75.9638 38:88.0204 39:42.8357 40:68.3691 41:52.1935 42:44.2428 43:98.9639 44:24.3331 45:57.7567 46:94.0479 47:27.6833 48:73.2914 49:45.8376 
-0.09433748114829223 -0.1444330429294804 0 0 0.06921386717640388 0.04109509376817449 0.08734563772252572 0:119.165 1:26.4952 2:102.148 3:36.637 4:109.167 5:38.5867 6:29.2281 7:122.115 8:0.291579 9:0.363201 10:89.1575 11:59.1189 12:89.1575 13:59.1189 14:99.4961 15:41.1215 16:59.0362 17:78.6901 18:61.3429 19:35.0704 20:64.3845 21:55.7253 22:64.3845 23:55.7253 24:55.4077 25:28.6861 26:40.6013 27:30.9638 28:67.6888 29:75.0544 30:35.2458 31:37.0622 32:58.431 33:23.3422 34:59.436 35:30.3385 36:84.5962 37:58.0643 38:82.1936 39:50.149 40:82.1405 41:50.014 42:52.125 43:96.3402 44:24.9849 45:53.0632 46:79.1913 47:25.6268 48:75.0501 49:51.8515 
-0 -0 0.2437669195535099 1 0 0.05096715353900833 0.007589608417076722 0:126.135 1:26.5651 2:100.814 3:42.5372 4:98.4135 5:44.2655 6:19.6964 7:123.623 8:14.9409 9:31.8245 10:80.3625 11:51.6048 12:80.3625 13:51.6048 14:82.6584 15:61.049 16:50.4912 17:97.1721 18:54.0251 19:38.7774 20:73.7997 21:38.8246 22:73.7997 23:38.8246 24:37.875 25:33.6901 26:40.7462 27:35.2176 28:65.3961 29:71.6141 30:37.356 31:40.0783 32:75.4446 33:27.3075 34:78.2544 35:28.2886 36:77.4023 37:59.1801 38:90 39:45 40:59.4208 41:65.556 42:50.8408 43:84.3754 44:29.7201 45:56.9549 46:90.2183 47:29.9363 48:69.4741 49:44.6583 
-0.3792200187571608 -0.6184714847476295 0.7504706015144547 0.1468480320616503 0.9400985531089761 0.5702912930025599 0.3523323311988462 0:129.747 1:20.8996 2:99.4623 3:39.9364 4:97.5227 5:49.209 6:31.2637 7:117.013 8:2.00453 9:2.75911 10:91.9462 11:53.5777 12:91.9462 13:53.5777 14:92.2497 15:38.8201 16:65.8239 17:68.9982 18:62.9346 19:49.8991 20:73.3977 21:53.6713 22:73.3977 23:53.6713 24:37.875 25:40.0303 26:32.805 27:46.0912 28:48.7314 29:85.0751 30:44.3013 31:50.6379 32:55.9679 33:28.4689 34:64.3018 35:40.4225 36:73.7268 37:76.577 38:70.1094 39:51.6104 40:91.2189 41:45.4092 42:60.7512 43:87.8758 44:19.44 45:42.117 46:80.0223 47:24.1387 48:77.4712 49:54.1623 
-0.349794540383317 -0 0 0.7335850111847265 0 0 0 0:106.65 1:41.69 2:111.043 3:40.4747 4:105.48 5:38.5184 6:9.47655 7:155.841 8:27.3499 9:33.1113 10:70.6652 11:66.7408 12:70.6652 13:66.7408 14:59.4097 15:70.9405 16:62.4887 17:89.5413 18:38.0216 19:48.665 20:100.345 21:24.5861 22:100.345 23:24.5861 24:34.0609 25:48.8141 26:36.091 27:40.9144 28:54.9581 29:51.1592 30:48.2325 31:45.5457 32:66.4189 33:36.0937 34:65.6384 35:26.5443 36:102.216 37:51.4536 38:103.215 39:37.4493 40:43.2969 41:66.1577 42:34.796 43:91.3972 44:41.1425 45:77.1544 46:87.3044 47:41.8908 48:41.7866 49:36.2989 
-0.3853123812222106 -1 0.6514202613552991 0.3293338639227945 0.4034984626909897 0.5458530061235555 1 0:108.125 1:45.5549 2:108.149 3:44.3498 4:111.901 5:32.2415 6:6.31473 7:164.516 8:38.1394 9:36.4426 10:63.4349 11:90 12:63.4349 13:90 14:44.7394 15:83.3104 16:72.2176 17:85.1906 18:26.8439 19:50.2624 20:106.759 21:18.7325 22:106.759 23:18.7325 24:36.2538 25:38.491 26:56.9519 27:32.3578 28:45.7192 29:35.1259 30:57.4715 31:53.2723 32:55.5567 33:40.1864 34:44.4838 35:16.307 36:148.071 37:23.1752 38:125.204 39:27.5842 40:23.3607 41:59.8211 42:19.7989 43:102.529 44:66.1155 45:82.3173 46:74.7956 47:67.4794 48:12.8774 49:16.049 
-0 -0 1 1 0 0 0 0:113.547 1:29.3297 2:107.899 3:37.7285 4:110.498 5:40.2145 6:21.2824 7:122.251 8:6.77424 9:15.9301 10:84.0939 11:52.1935 12:84.0939 13:52.1935 14:101.428 15:45.4936 16:45.6003 17:94.0856 18:59.7436 19:35.2176 20:61.2602 21:45 22:61.2602 23:45 24:40.0862 25:24.959 26:41.4552 27:38.9072 28:65.1318 29:73.4149 30:43.8147 31:40.8878 32:73.7398 33:23.3852 34:64.0529 35:34.9817 36:82.9659 37:60.2779 38:67.0231 39:54.61 40:82.5041 41:52.7461 42:53.0775 43:93.3713 44:23.7268 45:56.9356 46:88.2643 47:26.895 48:75.3066 49:45.844 
-0.07452157257327498 -0.08888371280519575 1 1 0.0131081101611858 0.07198557056313638 0.03924139198351648 0:97.8533 1:35.1013 2:110.325 3:36.4638 4:116.565 5:37.1169 6:28.5108 7:114.695 8:6.74558 9:13.1726 10:96.4416 11:43.979 12:96.4416 13:43.979 14:124.344 15:30.6341 16:40.7586 17:93.0322 18:50.6093 19:19.5699 20:46.302 21:44.1225 22:46.302 23:44.1225 24:41.4552 25:38.9072 26:35.5577 27:42.4489 28:98.6351 29:57.4227 30:27.769 31:28.5187 32:71.05 33:21.5977 34:65.556 35:39.6991 36:57.1886 37:81.6721 38:82.8919 39:47.8336 40:76.7082 41:48.53 42:44.8436 43:100.611 44:20.7975 45:53.6681 46:91.5054 47:26.2826 48:77.503 49:48.8353 
-0 -0 0 0 0 0 0.8646453858087322 0:116.423 1:38.1245 2:104.676 3:42.8524 4:103.607 5:35.172 6:0 7:180 8:35.2933 9:29.9892 10:72.2553 11:78.6901 12:72.2553 13:78.6901 14:50.9003 15:77.6881 16:72.0827 17:83.0216 18:30.5346 19:53.3103 20:109.351 21:20.7945 22:109.351 23:20.7945 24:33.7585 25:46.1322 26:50.4038 27:38.1818 28:48.8179 29:42.5193 30:54.4623 31:49.3987 32:59.6973 33:40.0303 34:49.2191 35:23.8012 36:122.624 37:41.2174 38:105.433 39:36.66 40:34.3302 41:72.1811 42:31.2005 43:83.7434 44:67.6199 45:65.1943 46:75.9638 47:53.1301 48:26.7606 49:34.1436 
-0.04181819579026284 -0.03674516760109161 0 0 1 0.0357472959858354 0.1631967303969712 0:131.343 1:26.2192 2:99.0797 3:43.4995 4:96.9819 5:40.2333 6:10.095 7:162.722 8:22.501 9:15.4557 10:90 11:63.4349 12:90 13:63.4349 14:52.8804 15:56.1358 16:92.6414 17:64.0789 18:32.2209 19:80.3723 20:126.614 21:21.4912 22:126.614 23:21.4912 24:47.237 25:42.3322 26:50.7106 27:40.2364 28:34.4474 29:63.4769 30:43.2643 31:56.7251 32:59.5128 33:29.5778 34:55.7088 35:27.3305 36:108.435 37:55.6849 38:83.4672 39:54.3009 40:67.5083 41:77.1777 42:82.5516 43:60.0069 44:30.1819 45:34.1392 46:61.5873 47:27.943 48:46.0782 49:73.8451 
-0 -0.02292030331058277 0 0.7644067740418192 0 0 0 0:125.754 1:29.6045 2:101.524 3:47.4141 4:104.845 5:41.1432 6:6.08469 7:162.392 8:21.7922 9:33.9993 10:68.7284 11:76.6864 12:68.7284 13:76.6864 14:59.4861 15:70.5744 16:62.4141 17:88.8791 18:34.4827 19:54.5806 20:99.5806 21:25.8014 22:99.5806 23:25.8014 24:39.5513 25:34.8643 26:48.1221 27:31.139 28:43.2736 29:55.1234 30:52.6598 31:52.9378 32:62.6389 33:33.1184 34:64.9915 35:24.3941 36:97.3412 37:43.9646 38:91.5131 39:42.1598 40:45 41:71.5651 42:36.0274 43:88.2101 44:46.1573 45:70.6342 46:89.1628 47:42.4856 48:50.282 49:35.2019 
-0 -0 1 0 0 0.4157783774632311 0 0:107.176 1:29.8337 2:108.578 3:37.1084 4:115.71 5:38.4537 6:28.8999 7:111.77 8:0.363778 9:0.855097 10:99.6375 11:45.8224 12:99.6375 13:45.8224 14:138.965 15:21.0166 16:33.4078 17:98.6813 18:48.2839 19:16.5899 20:34.1072 21:49.459 22:34.1072 23:49.459 24:38.2338 25:25.2011 26:42.7224 27:42.8789 28:99.8565 29:59.2645 30:28.1607 31:28.5812 32:60.9768 33:16.6511 34:60.4284 35:38.3569 36:57.2458 37:81.1691 38:73.134 39:51.6745 40:84.9364 41:43.5856 42:47.5765 43:100.959 44:21.482 45:53.9075 46:91.0922 47:23.247 48:82.0789 49:48.7235 
-0 -0 1 0.1348593699626681 0 0 0 0:118.603 1:25.3335 2:103.145 3:40.393 4:104.562 5:46.1646 6:28.9677 7:111.453 8:4.72241 9:10.6026 10:96.4416 11:43.979 12:96.4416 13:43.979 14:121.535 15:34.3949 16:42.4362 17:96.3223 18:52.5904 19:26.8856 20:46.342 21:44.2318 22:46.342 23:44.2318 24:33.7631 25:36.2538 26:33.3197 27:49.0856 28:82.1754 29:64.2646 30:37.733 31:35.8377 32:60.9454 33:23.1986 34:66.8014 35:34.992 36:56.8598 37:80.8451 38:77.4011 39:46.6823 40:84.3595 41:44.6485 42:49.6063 43:98.4816 44:20.4106 45:55.9436 46:89.4271 47:26.0585 48:81.1621 49:48.0976 
